tree
version=v4
num_class=1
num_tree_per_iteration=1
label_index=0
max_feature_idx=22
objective=regression
feature_names=ANO MES DIA HORA TMAX TMIN PRCP SNOW AWND TRAFICO_VOLUMEN LLUEVE RANGO_TEMPERATURA HORA_PICO ES_FINDE TRAFICO_ALTO PROMEDIO_ULTIMAS_168_HORAS DIA_SEMANA_Monday DIA_SEMANA_Sunday DIA_SEMANA_Thursday DIA_SEMANA_Tuesday DIA_SEMANA_Wednesday TIPO_BICICLETA_electric_bike TIPO_USUARIO_member
feature_infos=none [1:6] [1:31] [0:23] [-2.6688177324727214:1.4819543655458061] [-2.7201384164684601:1.4344813284533711] [-0.38092238944394868:11.996710923330177] [-0.1496590862159716:16.89367277572892] [-1.8509443828557188:4.3761406179026272] none [0:1] [-2.1365348834281446:3.9712154650609994] [0:1] [0:1] none [-2.3870102797777619:3.1935195705946864] [0:1] [0:1] [0:1] [0:1] [0:1] [0:1] [0:1]
tree_sizes=2774 2846 2887 2851 2864 2864 2865 2875 2871 2886 2876 2880 2879 2917 2891 2866 2870 2890 2907 2896 2889 2882 2880 2848 2889 2901 2886 2911 2898 2892 2892 2869 2870 2901 2881 2893 2908 2876 2866 2880 2869 2862 2889 2865 2869 2870 2862 2855 2834 2868 2896 2899 2891 2892 2866 2859 2834 2891 2898 2821 2881 2881 2874 2855 2874 2857 2859 2859 2887 2848 2887 2869 2888 2865 2873 2842 2875 2862 2864 2822 2817 2898 2845 2885 2869 2885 2819 2850 2824 2870 2883 2867 2895 2859 2894 2826 2873 2813 2904 2867

Tree=0
num_leaves=31
num_cat=0
split_feature=22 12 13 4 3 4 3 21 21 21 3 3 21 3 1 3 3 16 1 1 3 13 4 3 21 21 21 3 3 3
split_gain=196511 177498 111021 45840.4 38929.2 28128 18761.5 12709.8 12251 11688.6 12002.1 10944.5 10107.3 8375.3 5480.88 4539.59 3921.32 3517.27 3501.26 3485.54 3371.69 3882.75 3241.51 3185.55 3174.11 2757.74 2756.02 2464.56 3248.9 2415.64
threshold=1.0000000180025095e-35 1.0000000180025095e-35 1.0000000180025095e-35 1.0000000180025095e-35 4.5000000000000009 -0.036152096229488458 8.5000000000000018 1.0000000180025095e-35 1.0000000180025095e-35 1.0000000180025095e-35 16.500000000000004 18.500000000000004 1.0000000180025095e-35 16.500000000000004 3.5000000000000004 9.5000000000000018 17.500000000000004 1.0000000180025095e-35 3.5000000000000004 1.5000000000000002 5.5000000000000009 1.0000000180025095e-35 -0.35802909920083253 11.500000000000002 1.0000000180025095e-35 1.0000000180025095e-35 1.0000000180025095e-35 22.500000000000004 11.500000000000002 19.500000000000004
decision_type=2 2 2 2 2 2 2 2 2 2 2 2 2 2 2 2 2 2 2 2 2 2 2 2 2 2 2 2 2 2
left_child=22 4 3 6 -2 8 25 -7 15 -5 -11 17 -8 -4 16 20 -14 -12 -15 -10 -6 -22 -1 -24 -25 -3 -20 28 -9 -30
right_child=1 2 13 9 5 7 12 27 19 10 11 -13 14 18 -16 -17 -18 -19 26 -21 21 -23 23 24 -26 -27 -28 -29 29 -31
leaf_value=5.2365721258430264 5.2447406459042112 5.7942636033431967 5.2805939939316966 5.8870548168496368 5.3380601093781577 5.4581433895034142 5.5296882599336739 5.5424149941604171 5.3828474979593768 5.9579323355639957 6.5606551543831042 5.9708423726708997 5.7718501404197742 5.3959686542338909 5.9214864860920491 5.3195490233625584 5.5747849018077495 6.1516170923790323 5.4595716548908912 5.4715746231592792 5.6347127704290871 5.2064703183327961 5.2453632536397903 5.260917408916252 5.342323310956143 5.9413922004900099 5.6878235133496835 5.45229698440503 5.7048105186020264 5.5845847527909154
leaf_weight=5774 2860 634 986 945 315 2777 1224 872 1526 482 258 159 513 579 290 4235 497 66 264 4030 306 64 3050 1979 3032 640 265 234 1124 665
leaf_count=5774 2860 634 986 945 315 2777 1224 872 1526 482 258 159 513 579 290 4235 497 66 264 4030 306 64 3050 1979 3032 640 265 234 1124 665
internal_value=5.41717 5.49719 5.698 5.81224 5.41477 5.44488 5.71176 5.53456 5.39632 6.01205 6.13445 6.3106 5.6328 5.3866 5.72989 5.33886 5.67488 6.47733 5.48093 5.44721 5.45828 5.56064 5.26517 5.28565 5.31017 5.86817 5.57391 5.60787 5.62155 5.66012
internal_weight=0 26810 7802 5708 19008 16148 3798 5672 10476 1910 965 483 2524 2094 1300 4920 1010 324 1108 5556 685 370 13835 8061 5011 1274 529 2895 2661 1789
internal_count=40645 26810 7802 5708 19008 16148 3798 5672 10476 1910 965 483 2524 2094 1300 4920 1010 324 1108 5556 685 370 13835 8061 5011 1274 529 2895 2661 1789
is_linear=0
shrinkage=1


Tree=1
num_leaves=31
num_cat=0
split_feature=22 12 15 3 15 4 3 13 13 4 3 3 3 3 3 13 15 3 4 4 3 1 1 13 3 5 18 15 15 3
split_gain=177352 160192 103904 35133.6 27749.4 25385.5 15798.3 10980.7 10826.1 10090.8 9849.9 7681.7 6536.92 6376.92 10874.3 12242.4 4411.77 3677.85 3043.06 2925.46 2874.95 2799.23 2551.73 2474.94 2952.15 3702.69 2469.58 2241.09 2191.41 2056.99
threshold=1.0000000180025095e-35 1.0000000180025095e-35 -0.60237908330724044 4.5000000000000009 0.94992407395908729 -0.036152096229488458 18.500000000000004 1.0000000180025095e-35 1.0000000180025095e-35 1.0000000180025095e-35 8.5000000000000018 8.5000000000000018 18.500000000000004 9.5000000000000018 5.5000000000000009 1.0000000180025095e-35 -0.14651938945669549 16.500000000000004 0.44426134104117448 -0.35802909920083253 11.500000000000002 4.5000000000000009 3.5000000000000004 1.0000000180025095e-35 16.500000000000004 -0.34373942624484721 1.0000000180025095e-35 1.8093825886988772 -1.3014329384628431 20.500000000000004
decision_type=2 2 2 2 2 2 2 2 2 2 2 2 2 2 2 2 2 2 2 2 2 2 2 2 2 2 2 2 2 2
left_child=19 3 8 -2 6 13 7 9 11 10 -4 28 23 14 -5 -16 -15 -11 -19 -1 -21 -7 -12 24 -6 -26 27 -14 -3 -23
right_child=1 2 4 5 12 21 -8 -9 -10 17 22 -13 26 16 15 -17 -18 18 -20 20 -22 29 -24 -25 25 -27 -28 -29 -30 -31
leaf_value=-0.17157055533890767 -0.16381045532810104 0.0079842021388392293 0.48224466184910525 -0.068206225525825587 0.59855883717536928 0.051248875821996304 0.12941204933276704 0.11451660431711014 -0.091785031900570926 0.47432309220358732 0.23698655963839382 -0.012840434496394916 0.27456898132834257 -0.062862777972579664 0.30814174830093743 -0.15264330392188216 0.0096749867461421116 0.4971532481136145 0.81008275693557297 -0.16321898146266822 -0.10164916810013297 0.15091384278388198 0.39043858183004365 0.34971455536984108 0.43133280847383582 0.91061925271841204 0.75514480842734288 0.62726235178018375 0.32969388858265969 0.067804647181414976
leaf_weight=5774 2860 62 889 705 168 1438 754 354 1488 750 1165 457 158 5623 618 188 3342 135 183 3050 5011 3270 353 37 46 325 53 63 362 964
leaf_count=5774 2860 62 889 705 168 1438 754 354 1488 750 1165 457 158 5623 618 188 3342 135 183 3050 5011 3270 353 37 46 325 53 63 362 964
internal_value=0 0.076017 0.266785 -0.00228558 0.387274 0.0263224 0.33861 0.379805 -0.00953989 0.40683 0.350075 0.129371 0.649661 -0.0198066 0.0752146 0.200663 -0.0358219 0.534741 0.677235 -0.144404 -0.124945 0.111521 0.272671 0.745295 0.77245 0.851193 0.448621 0.375111 0.282651 0.131991
internal_weight=0 26810 7802 19008 5433 16148 4583 3829 2369 3475 2407 881 850 10476 1511 806 8965 1068 318 13835 8061 5672 1518 576 539 371 274 221 424 4234
internal_count=40645 26810 7802 19008 5433 16148 4583 3829 2369 3475 2407 881 850 10476 1511 806 8965 1068 318 13835 8061 5672 1518 576 539 371 274 221 424 4234
is_linear=0
shrinkage=0.05


Tree=2
num_leaves=31
num_cat=0
split_feature=22 12 13 4 3 4 3 21 21 21 3 3 21 3 3 3 4 21 4 21 3 13 1 3 21 1 19 3 3 13
split_gain=160060 144573 90604.4 37806.2 31708.1 22910.4 16593.8 11477.9 11188.2 11105.6 10531.4 9775.13 7930.39 7166.87 3711.39 3612.44 3116.69 3044.27 2660.88 2647.64 2631.02 3118.53 2554.57 2552.23 2778.42 2506.25 2522.07 2356.1 5772.23 5718.56
threshold=1.0000000180025095e-35 1.0000000180025095e-35 1.0000000180025095e-35 -0.14184305242903422 4.5000000000000009 -0.036152096229488458 8.5000000000000018 1.0000000180025095e-35 1.0000000180025095e-35 1.0000000180025095e-35 16.500000000000004 18.500000000000004 1.0000000180025095e-35 16.500000000000004 9.5000000000000018 18.500000000000004 -0.78559705837172245 1.0000000180025095e-35 -0.14184305242903422 1.0000000180025095e-35 5.5000000000000009 1.0000000180025095e-35 2.5000000000000004 11.500000000000002 1.0000000180025095e-35 3.5000000000000004 1.0000000180025095e-35 9.5000000000000018 5.5000000000000009 1.0000000180025095e-35
decision_type=2 2 2 2 2 2 2 2 2 2 2 2 2 2 2 2 2 2 2 2 2 2 2 2 2 2 2 2 2 2
left_child=18 4 3 6 -2 9 19 -7 -5 14 -10 25 -8 -4 20 -14 27 -15 -1 -3 -6 -22 -19 -20 -25 -12 -27 28 -11 -30
right_child=1 2 13 8 5 7 12 -9 10 16 11 -13 15 17 -16 -17 -18 22 23 -21 21 -23 -24 24 -26 26 -28 -29 29 -31
leaf_value=-0.15923073779049784 -0.15561993801718826 0.33265073445235566 -0.12592715082754349 0.40508361447231711 -0.071746661833354416 0.033323016006138677 0.083427293757746004 0.17560705388096742 0.47644404900709936 -0.086974018535732694 0.50862594320788046 0.48717602138583732 0.31677566307542565 -0.026692296835763369 -0.090988459244739917 0.11462808439686692 0.073191829669505853 -0.0085081510399420239 -0.15414514930407222 0.48257320750423061 0.19125596669569514 -0.19253509128466251 0.21438661872010845 -0.14032476256665946 -0.058629038285188645 0.8973637040350374 1.2211071582940909 -0.020528906696133862 0.39778160008912289 -0.15120601694262217
leaf_weight=6880 2860 585 986 1080 315 2777 1138 2895 553 221 32 185 909 533 4235 292 2361 194 2636 593 306 64 381 1749 2570 263 78 2719 192 63
leaf_count=6880 2860 585 986 1080 315 2777 1138 2895 553 221 32 185 909 533 4235 292 2361 194 2636 593 306 64 381 1749 2570 263 78 2719 192 63
internal_value=0 0.0722162 0.253446 0.356648 -0.00217131 0.0250062 0.255083 0.105945 0.519681 -0.0188163 0.63108 0.784331 0.178008 -0.0278703 -0.0735232 0.267627 0.0296283 0.0593896 -0.137184 0.408121 0.0344553 0.12487 0.139184 -0.115375 -0.0917121 0.931713 0.971416 -0.00256378 0.100056 0.262149
internal_weight=0 26810 7802 5708 19008 16148 3517 5672 2191 10476 1111 558 2339 2094 4920 1201 5556 1108 13835 1178 685 370 575 6955 4319 373 341 3195 476 255
internal_count=40645 26810 7802 5708 19008 16148 3517 5672 2191 10476 1111 558 2339 2094 4920 1201 5556 1108 13835 1178 685 370 575 6955 4319 373 341 3195 476 255
is_linear=0
shrinkage=0.05


Tree=3
num_leaves=31
num_cat=0
split_feature=22 12 15 3 15 4 3 21 21 21 13 21 13 3 1 13 3 3 1 13 15 4 1 3 3 3 13 3 3 3
split_gain=144454 130477 87500.6 28616.5 23958 20791.5 13231 13000.9 12551.9 8915.28 8071.81 7489.02 7477.45 6455.8 4799.46 4692.36 4612.15 5795.58 5390.72 3683.64 3163.38 3161.57 2861.94 2602.32 2464.21 4466.32 2843.14 2451.25 4745.23 2835.93
threshold=1.0000000180025095e-35 1.0000000180025095e-35 -0.60237908330724044 4.5000000000000009 0.7067299126540294 -0.35802909920083253 8.5000000000000018 1.0000000180025095e-35 1.0000000180025095e-35 1.0000000180025095e-35 1.0000000180025095e-35 1.0000000180025095e-35 1.0000000180025095e-35 8.5000000000000018 3.5000000000000004 1.0000000180025095e-35 18.500000000000004 16.500000000000004 3.5000000000000004 1.0000000180025095e-35 -1.0274514312053364 0.44426134104117448 4.5000000000000009 9.5000000000000018 9.5000000000000018 5.5000000000000009 1.0000000180025095e-35 11.500000000000002 19.500000000000004 14.500000000000002
decision_type=2 2 2 2 2 2 2 2 2 2 2 2 2 2 2 2 2 2 2 2 2 2 2 2 2 2 2 2 2 2
left_child=-1 3 10 -2 6 11 12 -7 21 -6 13 23 -4 -3 -10 -16 17 -11 -19 -20 -13 -8 -9 -5 25 -22 -27 -24 29 -29
right_child=1 2 4 5 9 7 8 22 14 16 -12 20 -14 -15 15 -17 -18 18 19 -21 24 -23 27 -25 -26 26 -28 28 -30 -31
leaf_value=-0.13032466812103227 -0.14783893447655899 0.2476610903399733 0.44722250784039269 0.020480859297868574 0.40749136218922094 0.017225815461131156 0.090136621275695272 0.096689692907348801 0.25422519824395073 0.5201283960255334 -0.083819717856284282 -0.044435624947000013 -0.14292345861239095 -0.023228188895129273 0.52127164396704795 0.2192110956259323 0.45480475319956226 0.42116108338038133 1.0553337485418408 0.44612088714327131 -0.018063734426183073 0.29078280462997375 0.10664030992809465 -0.094575157319662567 0.025997702761279353 0.38671328379435743 -0.098310733462373415 0.22298920908907408 0.12266961569137756 0.4060368948084655
leaf_weight=13835 2860 424 1293 572 616 3635 1144 1545 809 166 1488 1519 56 457 463 178 174 51 218 28 196 237 697 3490 2683 188 36 526 707 354
leaf_count=13835 2860 424 1293 572 616 3635 1144 1545 809 166 1488 1519 56 457 463 178 174 51 218 28 196 237 697 3490 2683 188 36 526 707 354
internal_value=0 0.0686054 0.240774 -0.00206274 0.351343 0.0237559 0.293857 0.0849526 0.232451 0.543117 -0.0128032 -0.0288434 0.422724 0.107143 0.335198 0.437392 0.674271 0.756749 0.889001 0.985992 0.0146855 0.12457 0.149248 -0.0783733 0.0436269 0.156244 0.308763 0.184801 0.219128 0.296624
internal_weight=0 26810 7802 19008 5433 16148 4180 7464 2831 1253 2369 8684 1349 881 1450 641 637 463 297 246 4622 1381 3829 4062 3103 420 224 2284 1587 880
internal_count=40645 26810 7802 19008 5433 16148 4180 7464 2831 1253 2369 8684 1349 881 1450 641 637 463 297 246 4622 1381 3829 4062 3103 420 224 2284 1587 880
is_linear=0
shrinkage=0.05


Tree=4
num_leaves=31
num_cat=0
split_feature=22 12 15 3 15 4 3 21 21 21 13 21 3 3 3 13 4 3 15 4 3 3 13 3 13 4 1 3 13 3
split_gain=130370 117756 78993.1 25826.4 21598.7 19010.6 12732.2 10769.5 9571.32 8798.51 7489.04 7436.88 6155.3 5690.71 5002.62 4267.66 3786.26 6262.68 3765.46 3606.55 3123.64 3093.45 2705.04 2522.92 2426.69 2419.5 2401.12 2396.87 2913.68 2361.48
threshold=1.0000000180025095e-35 1.0000000180025095e-35 -0.5899606580491098 4.5000000000000009 0.94992407395908729 1.0000000180025095e-35 18.500000000000004 1.0000000180025095e-35 1.0000000180025095e-35 1.0000000180025095e-35 1.0000000180025095e-35 1.0000000180025095e-35 8.5000000000000018 8.5000000000000018 18.500000000000004 1.0000000180025095e-35 1.0000000180025095e-35 16.500000000000004 -1.0274514312053364 0.49710681914094745 16.500000000000004 9.5000000000000018 1.0000000180025095e-35 8.5000000000000018 1.0000000180025095e-35 -0.35802909920083253 3.5000000000000004 5.5000000000000009 1.0000000180025095e-35 11.500000000000002
decision_type=2 2 2 2 2 2 2 2 2 2 2 2 2 2 2 2 2 2 2 2 2 2 2 2 2 2 2 2 2 2
left_child=25 3 10 -2 6 8 7 12 21 -7 13 -6 22 -3 20 16 23 -18 -10 -14 -13 27 -4 26 -22 -1 -9 -5 -29 -27
right_child=1 2 4 5 11 9 -8 15 18 -11 -12 14 19 -15 -16 -17 17 -19 -20 -21 24 -23 -24 -25 -26 29 -28 28 -30 -31
leaf_value=-0.1485142554076157 -0.1404469919288075 0.23291007338827072 0.37852192913317473 -0.068660160945295923 0.41692267515083065 0.034179175030538946 0.10347793575519744 0.55036602382279609 -0.033640231241491181 0.16212056752613246 -0.079462329755855987 0.58161540826161706 0.12954693447517709 -0.018667625452809294 0.46754526436328891 0.18072165324465261 0.43299481259688499 0.80297807662225351 0.055075670754579288 0.35275791158783254 0.99798948033738533 -0.081552848148033971 -0.1411222884288201 0.33189348914113243 0.41759771347045904 -0.14080002618446702 0.28020973454822196 0.18007331038261676 -0.18539156218369801 -0.084998668379623721
leaf_weight=5774 2860 436 681 323 422 2638 753 326 1705 2739 1490 87 942 464 140 182 378 164 4007 224 181 4356 26 776 20 3050 110 314 66 5011
leaf_count=5774 2860 436 681 323 422 2638 753 326 1705 2739 1490 87 942 464 140 182 378 164 4007 224 181 4356 26 776 20 3050 110 314 66 5011
internal_value=0 0.0651751 0.228735 -0.0019596 0.334461 0.0225681 0.291345 0.328485 -0.0157629 0.0993515 -0.0106744 0.565866 0.243009 0.103208 0.712722 0.41118 0.435092 0.544945 0.0285945 0.172428 0.831905 -0.0658459 0.359412 0.385967 0.940239 -0.123808 0.482207 0.0314793 0.116598 -0.106112
internal_weight=0 26810 7802 19008 5412 16148 4562 3809 10771 5377 2390 850 1873 900 428 1936 1754 542 5712 1166 288 5059 707 1212 201 13835 436 703 380 8061
internal_count=40645 26810 7802 19008 5412 16148 4562 3809 10771 5377 2390 850 1873 900 428 1936 1754 542 5712 1166 288 5059 707 1212 201 13835 436 703 380 8061
is_linear=0
shrinkage=0.05


Tree=5
num_leaves=31
num_cat=0
split_feature=22 12 15 3 15 4 3 13 21 21 21 21 3 3 3 3 5 15 13 3 13 4 3 3 3 13 4 15 3 3
split_gain=116152 105264 68365.6 22662.6 18593.5 16664.4 11161.6 8498.32 7876.3 7869.53 7341.43 7089.41 6631.21 5874.63 4057.99 5029.32 5177.27 3522.33 3292.68 3060.53 3054.18 2690.6 2929.35 2904.59 2343.51 2666.02 2281.28 2256.79 2147.74 2958.35
threshold=1.0000000180025095e-35 1.0000000180025095e-35 -0.50096194369917357 4.5000000000000009 0.7067299126540294 1.0000000180025095e-35 18.500000000000004 1.0000000180025095e-35 1.0000000180025095e-35 1.0000000180025095e-35 1.0000000180025095e-35 1.0000000180025095e-35 16.500000000000004 8.5000000000000018 18.500000000000004 16.500000000000004 -0.34373942624484721 -1.2186434367419723 1.0000000180025095e-35 9.5000000000000018 1.0000000180025095e-35 -0.24753400862858013 16.500000000000004 8.5000000000000018 5.5000000000000009 1.0000000180025095e-35 1.0000000180025095e-35 0.12461622867915639 22.500000000000004 12.500000000000002
decision_type=2 2 2 2 2 2 2 2 2 2 2 2 2 2 2 2 2 2 2 2 2 2 2 2 2 2 2 2 2 2
left_child=26 3 7 -2 6 8 11 13 19 -7 -6 12 -4 -3 15 -12 -17 -10 -18 24 21 23 -23 -13 -5 -26 -1 -24 29 -11
right_child=1 2 4 5 10 9 -8 -9 17 28 14 20 -14 -15 -16 16 18 -19 -20 -21 -22 22 27 -25 25 -27 -28 -29 -30 -31
leaf_value=-0.13636100811180379 -0.13411750802268979 0.23427398804733424 0.3131631981697382 -0.062649891004625688 0.36445945868712099 0.030036129407859588 0.077178536577427639 -0.069908395451511632 -0.046896846522819641 0.10024200862224696 0.47018999642353843 0.46078581832136428 0.10917188149378998 -0.0022822439642553043 0.39462811941436182 0.40757554126164275 0.98928548595798549 0.045817910440985161 0.40121151959454571 -0.078114887958595156 0.16949202343364436 0.40924557913621468 0.39640583211725411 0.27965226536771387 0.17913978318609891 -0.16607648888055015 -0.095454207361997806 0.78693160673158369 -0.001515724072145803 0.20986877657329611
leaf_weight=7687 2824 518 964 339 630 2683 658 1546 1344 1067 176 350 679 532 168 63 201 4308 27 4320 163 389 55 602 315 68 6123 113 214 1454
leaf_count=7687 2824 518 964 339 630 2683 658 1546 1344 1067 176 350 679 532 168 63 201 4308 27 4320 163 389 55 602 315 68 6123 113 214 1454
internal_value=0 0.060309 0.214457 -0.00346337 0.318441 0.0194368 0.265285 0.00464615 -0.0167575 0.0908767 0.485389 0.302622 0.22886 0.114419 0.605366 0.681177 0.808785 0.0237711 0.919645 -0.0621894 0.375105 0.397315 0.4846 0.346245 0.0330991 0.117848 -0.118224 0.659081 0.150561 0.16347
internal_weight=0 26770 7834 18936 5238 16112 3973 2596 10694 5418 1265 3315 1643 1050 635 467 291 5652 228 5042 1672 1509 557 952 722 383 13810 168 2735 2521
internal_count=40580 26770 7834 18936 5238 16112 3973 2596 10694 5418 1265 3315 1643 1050 635 467 291 5652 228 5042 1672 1509 557 952 722 383 13810 168 2735 2521
is_linear=0
shrinkage=0.05


Tree=6
num_leaves=31
num_cat=0
split_feature=22 12 15 3 15 1 3 13 3 13 13 4 3 3 13 4 15 3 3 15 3 1 3 15 3 1 20 3 15 2
split_gain=104827 95000.3 61754.5 20673.8 17804.1 15364.6 16422.7 10825.1 10432 6868.68 6152.92 5500.7 5801.94 5311.33 4816.8 5581.73 3753.67 2954.09 3946.08 2635.31 3436.46 2074.81 2106.13 2003.87 1940.56 1687.35 1625.84 1489.36 1477.38 1513.28
threshold=1.0000000180025095e-35 1.0000000180025095e-35 -0.5899606580491098 5.5000000000000009 0.7067299126540294 4.5000000000000009 9.5000000000000018 1.0000000180025095e-35 18.500000000000004 1.0000000180025095e-35 1.0000000180025095e-35 -0.35802909920083253 8.5000000000000018 8.5000000000000018 1.0000000180025095e-35 0.12238433806983016 -0.13720557051309765 18.500000000000004 16.500000000000004 -0.25725034800836016 20.500000000000004 3.5000000000000004 8.5000000000000018 -1.3169559700355065 4.5000000000000009 2.5000000000000004 1.0000000180025095e-35 8.5000000000000018 0.059936930459726069 9.5000000000000018
decision_type=2 2 2 2 2 2 2 2 2 2 2 2 2 2 2 2 2 2 2 2 2 2 2 2 2 2 2 2 2 2
left_child=21 3 10 24 8 6 7 -5 9 11 13 12 26 23 15 -6 25 18 -17 -7 -21 -1 -23 -3 -2 -8 -4 -11 -13 -30
right_child=1 2 4 5 14 19 16 -9 -10 27 -12 28 -14 -15 -16 17 -18 -19 -20 20 -22 22 -24 -25 -26 -27 -28 -29 29 -31
leaf_value=-0.13532671211823744 -0.12741162894457242 -0.043374067881414971 0.32615970522433307 0.28930840700477189 0.34396870169313809 0.039765047598295952 -0.077310329092752206 -0.13589479696025086 0.068761124938207824 -0.1450585039332509 -0.069505333633476649 0.31836940938455649 0.17787778088630332 -0.025078797248307239 0.15692939151046892 0.43660496287496697 0.0086009806164592719 0.41779092136230844 0.73140767658321315 0.16010331514288953 0.046440500287914181 -0.14535337755232614 -0.082790576442433345 0.26336599666259647 -0.049153810749667869 -0.021796442981957626 0.5244400254384739 0.12143249200592782 0.54979048235849903 0.38733269583300389
leaf_weight=5730 2824 62 556 692 408 1226 3304 191 686 64 1507 542 1112 445 118 166 4090 214 359 2222 949 1705 6375 377 1101 2337 127 290 187 614
leaf_count=5730 2824 62 556 692 408 1226 3304 191 686 64 1507 542 1112 445 118 166 4090 214 359 2222 949 1705 6375 377 1101 2337 127 290 187 614
internal_value=0 0.0572935 0.203734 -0.00329021 0.296777 0.0234245 -0.00913398 0.197334 0.247018 0.282036 -0.00807395 0.305589 0.248328 0.0966513 0.461119 0.492413 -0.027869 0.574369 0.638194 0.102018 0.126087 -0.112313 -0.0959923 0.220045 -0.10546 -0.0543116 0.363029 0.0732533 0.382122 0.42526
internal_weight=0 26770 7834 18936 5443 15011 10614 883 4178 3492 2391 3138 1795 884 1265 1147 9731 739 525 4397 3171 13810 8080 439 3925 5641 683 354 1343 801
internal_count=40580 26770 7834 18936 5443 15011 10614 883 4178 3492 2391 3138 1795 884 1265 1147 9731 739 525 4397 3171 13810 8080 439 3925 5641 683 354 1343 801
is_linear=0
shrinkage=0.05


Tree=7
num_leaves=31
num_cat=0
split_feature=22 12 17 4 3 21 3 4 3 3 21 3 3 17 1 3 17 21 21 21 3 1 1 20 1 1 3 4 21 3
split_gain=94606.6 85737.8 54264.4 26697.3 18658.1 14304.3 11108.9 10457.7 6989.18 6911.96 6535.86 7715.31 7006.26 6398.83 5264.21 4817.76 4741.97 4395.36 3238.84 2732.11 2730.47 2511.52 2405 2300.46 2114.47 2041.86 2149.04 1948.99 1922.05 2200.11
threshold=1.0000000180025095e-35 1.0000000180025095e-35 1.0000000180025095e-35 -0.24753400862858013 5.5000000000000009 1.0000000180025095e-35 16.500000000000004 -0.35802909920083253 9.5000000000000018 9.5000000000000018 1.0000000180025095e-35 16.500000000000004 18.500000000000004 1.0000000180025095e-35 4.5000000000000009 16.500000000000004 1.0000000180025095e-35 1.0000000180025095e-35 1.0000000180025095e-35 1.0000000180025095e-35 22.500000000000004 4.5000000000000009 1.5000000000000002 1.0000000180025095e-35 4.5000000000000009 5.5000000000000009 7.5000000000000009 0.12238433806983016 1.0000000180025095e-35 12.500000000000002
decision_type=2 2 2 2 2 2 2 2 2 2 2 2 2 2 2 2 2 2 2 2 2 2 2 2 2 2 2 2 2 2
left_child=27 4 3 6 -2 9 18 8 13 16 25 -12 21 -7 -11 -4 -6 -8 -3 -17 24 -13 -19 -20 -9 -5 -27 -1 -29 -30
right_child=1 2 15 10 5 7 17 20 -10 14 11 12 -14 -15 -16 19 -18 22 23 -21 -22 -23 -24 -25 -26 26 -28 28 29 -31
leaf_value=-0.12227796260356293 -0.10018658586600973 0.20419492164682979 -0.10144185725836524 0.28613401253042764 0.20285143666898758 0.35508432258557909 0.01039410015470371 0.096534156648244732 -0.0032306208985922666 -0.072230360986585737 0.36137673534042447 0.55800180328743798 0.37105862022532771 -0.12004064276968081 0.024821287183649839 -0.030824461014985684 -0.165170497872005 0.052683747829274929 0.30404632626199274 0.12534329251442916 -0.013253460049337777 0.83033999779889767 0.23104828989578585 0.51682192333282961 0.17883654112021155 0.13618926947767085 0.52378878304783594 -0.11973810827589607 -0.10502319505403623 -0.023774525024212907
leaf_weight=8181 3925 836 1006 923 481 263 824 1302 3883 4636 599 126 192 97 2000 546 107 282 704 575 294 258 573 155 1948 44 191 2259 1508 1862
leaf_count=8181 3925 836 1006 923 481 263 824 1302 3883 4636 599 126 192 97 2000 546 107 282 704 575 294 258 573 155 1948 44 191 2259 1508 1862
internal_value=0 0.0544288 0.193547 0.273884 -0.0031257 0.0222533 0.183958 0.0692646 0.0163089 -0.0284218 0.403936 0.487016 0.617672 0.227065 -0.0429803 -0.0220067 0.135881 0.0928006 0.274255 0.0492794 0.132665 0.740979 0.172219 0.34244 0.145865 0.319635 0.451217 -0.106697 -0.0840525 -0.0601315
internal_weight=0 26770 7834 5707 18936 15011 3374 7787 4243 7224 2333 1175 576 360 6636 2127 588 1679 1695 1121 3544 384 855 859 3250 1158 235 13810 5629 3370
internal_count=40580 26770 7834 5707 18936 15011 3374 7787 4243 7224 2333 1175 576 360 6636 2127 588 1679 1695 1121 3544 384 855 859 3250 1158 235 13810 5629 3370
is_linear=0
shrinkage=0.05


Tree=8
num_leaves=31
num_cat=0
split_feature=22 12 15 3 15 4 4 13 3 13 3 15 3 3 13 15 3 1 3 2 19 3 15 2 4 3 1 3 5 18
split_gain=85382.4 77378.4 52436.3 16970.7 15535.2 12776.9 9088.91 9482.55 5834.87 8335.33 4563.55 4100.82 3787.08 7135.8 6503.33 3524.15 2845.86 2556.76 2492.74 2490.1 2141.42 2026.05 2335.76 2396.91 1758.96 1772.23 1665.62 1545.36 1533.76 1470.75
threshold=1.0000000180025095e-35 1.0000000180025095e-35 -0.023370005646900203 4.5000000000000009 -0.89214233933028819 0.17522981616960318 -0.24753400862858013 1.0000000180025095e-35 16.500000000000004 1.0000000180025095e-35 16.500000000000004 -1.3014329384628431 9.5000000000000018 5.5000000000000009 1.0000000180025095e-35 0.94992407395908729 18.500000000000004 2.5000000000000004 16.500000000000004 5.5000000000000009 1.0000000180025095e-35 20.500000000000004 0.74657236035719843 30.500000000000004 0.12238433806983016 11.500000000000002 5.5000000000000009 12.500000000000002 -0.46881305730924788 1.0000000180025095e-35
decision_type=2 2 2 2 2 2 2 2 2 2 2 2 2 2 2 2 2 2 2 2 2 2 2 2 2 2 2 2 2 2
left_child=24 3 4 -2 29 11 10 15 9 -6 19 -5 13 -13 -15 20 18 -14 -17 -4 26 22 23 27 -1 -26 -8 -7 -21 -3
right_child=1 2 6 5 8 21 7 -9 -10 -11 -12 12 17 14 -16 16 -18 -19 -20 28 -22 -23 -24 -25 25 -27 -28 -29 -30 -31
leaf_value=-0.11616406403614016 -0.11603171940228081 -0.053248741849101958 0.15210759067035182 -0.073739376523101849 0.26762956525893705 0.039205548054011517 0.31591966515862507 0.12781534564786964 0.059676977961763612 -0.09605005034983484 0.15751856380719503 -0.04084522333755819 -0.043033491922641672 0.25856895662088658 -0.11714111930215276 0.42449024305261418 0.37035573155651641 0.01489308323674127 0.67513944586371166 0.42448184744928358 0.51729050164045609 0.024579058917451914 0.16637265097783899 0.50150815718101727 -0.11606734919214859 -0.058117335917657921 0.51005603671073918 0.11557420754975399 0.23483695610055141 0.34916500526925792
leaf_weight=8181 2824 1774 159 2189 1133 1507 736 291 1066 183 889 662 3473 592 143 145 201 4219 314 419 228 1082 1030 33 2111 3518 130 1182 143 23
leaf_count=8181 2824 1774 159 2189 1133 1507 736 291 1066 183 889 662 3473 592 143 145 201 4219 314 419 228 1082 1030 33 2111 3518 130 1182 143 23
internal_value=0 0.0517074 0.18387 -0.00296941 0.0628931 0.0168474 0.32219 0.39215 0.146626 0.217057 0.233328 -0.0123031 0.0024932 0.0782263 0.185472 0.436005 0.527252 -0.0112612 0.595958 0.326803 0.380956 0.0848572 0.10224 0.0779725 -0.101362 -0.0798499 0.345063 0.0727748 0.376227 -0.0480982
internal_weight=0 26770 7834 18936 4179 16112 3655 2045 2382 1316 1610 11278 9089 1397 735 1754 660 7692 459 721 1094 4834 3752 2722 13810 5629 866 2689 562 1797
internal_count=40580 26770 7834 18936 4179 16112 3655 2045 2382 1316 1610 11278 9089 1397 735 1754 660 7692 459 721 1094 4834 3752 2722 13810 5629 866 2689 562 1797
is_linear=0
shrinkage=0.05


Tree=9
num_leaves=31
num_cat=0
split_feature=22 12 15 3 21 4 13 4 21 3 15 3 3 13 21 3 3 1 13 3 15 21 15 3 15 3 15 21 4 3
split_gain=77057.6 69834 47373.3 15349.2 12985.3 12868.8 11200.2 8803.71 7341.88 6409.27 6069.03 5871.88 5783.75 5388.31 4357.37 5943.71 4881.09 4300.35 4004.73 3065.55 2703.79 2603.27 2399.28 2396.39 2317.84 2300.45 2107.4 1728.92 2071.9 2029.23
threshold=1.0000000180025095e-35 1.0000000180025095e-35 -0.45749745529571645 5.5000000000000009 1.0000000180025095e-35 0.28572490674185586 1.0000000180025095e-35 -0.35802909920083253 1.0000000180025095e-35 16.500000000000004 -0.97182723473662636 9.5000000000000018 9.5000000000000018 1.0000000180025095e-35 1.0000000180025095e-35 16.500000000000004 18.500000000000004 4.5000000000000009 1.0000000180025095e-35 18.500000000000004 0.98666191534772374 1.0000000180025095e-35 0.19860934584218462 22.500000000000004 0.73415393509906779 7.5000000000000009 -0.24845396345051771 1.0000000180025095e-35 -0.24753400862858013 8.5000000000000018
decision_type=2 2 2 2 2 2 2 2 2 2 2 2 2 2 2 2 2 2 2 2 2 2 2 2 2 2 2 2 2 2
left_child=27 3 10 -2 12 8 14 11 9 25 -3 13 18 -6 -7 -16 -17 -14 22 20 -10 -12 -5 24 -9 -4 -13 -1 -29 -30
right_child=1 2 5 4 7 6 -8 23 19 -11 21 26 17 -15 15 16 -18 -19 -20 -21 -22 -23 -24 -25 -26 -27 -28 28 29 -31
leaf_value=-0.12141712499613999 -0.090855521723722965 -0.055723874286562669 0.38163848013506024 0.11830091823670263 0.32705507298697767 0.35032568954759175 0.10604963438110609 0.11077789617024761 0.29743415223784248 0.050179146808121501 0.017883798062853586 -0.031114915960427689 -0.067838813018333416 -0.10894220299711549 0.37547721674688805 0.79998983683685465 0.40381390484778779 0.019879170846333727 -0.15444863249208327 0.14569508846571197 0.60402208874492269 0.17218008282815553 0.37427078807741648 -0.013540056807489521 0.20756886727675328 0.18945657909668367 0.044319737157014413 -0.10785364491786474 -0.1198010779403407 -0.042203563476754941
leaf_weight=4578 3925 1619 218 358 263 666 306 2419 1337 959 535 2359 4636 97 324 240 115 2000 107 335 76 559 123 294 831 545 1524 4552 1102 3578
leaf_count=4578 3925 1619 218 358 263 666 306 2419 1337 959 535 2359 4636 97 324 240 115 2000 107 335 76 559 123 294 831 545 1524 4552 1102 3578
internal_value=0 0.049122 0.174676 -0.00282094 0.0201979 0.26417 0.379079 0.0649893 0.209497 0.136221 0.00574992 0.0164014 -0.0280844 0.209578 0.441195 0.530325 0.671651 -0.0414018 0.122213 0.281684 0.313924 0.0967244 0.183757 0.12316 0.135527 0.244366 -0.00150832 -0.0962942 -0.0838361 -0.0604755
internal_weight=0 26770 7834 18936 15011 5121 1651 7787 3470 1722 2713 4243 7224 360 1345 679 355 6636 588 1748 1413 1094 481 3544 3250 763 3883 13810 9232 4680
internal_count=40580 26770 7834 18936 15011 5121 1651 7787 3470 1722 2713 4243 7224 360 1345 679 355 6636 588 1748 1413 1094 481 3544 3250 763 3883 13810 9232 4680
is_linear=0
shrinkage=0.05


Tree=10
num_leaves=31
num_cat=0
split_feature=22 12 15 3 15 4 3 13 3 13 13 4 3 4 3 3 13 15 3 15 3 15 1 3 3 3 3 4 16 1
split_gain=70089.7 61014.7 43928.7 14957.9 12564.8 11094.1 7770.39 5088.62 4179.81 3996.99 3930.7 3847.43 4686.43 3209.91 2624.93 4455.85 4767.65 2563.9 2410.75 2316.22 2163.31 1867.25 1717.61 1654.75 1625.04 3310.98 1591.79 1847.26 1578.03 1521.74
threshold=1.0000000180025095e-35 1.0000000180025095e-35 -0.50096194369917357 4.5000000000000009 0.76209539192986187 -0.35802909920083253 18.500000000000004 1.0000000180025095e-35 8.5000000000000018 1.0000000180025095e-35 1.0000000180025095e-35 0.12238433806983016 8.5000000000000018 -0.78559705837172245 9.5000000000000018 5.5000000000000009 1.0000000180025095e-35 0.76209539192986187 19.500000000000004 -0.13720557051309765 14.500000000000002 -1.3630076303677408 3.5000000000000004 22.500000000000004 16.500000000000004 18.500000000000004 8.5000000000000018 0.069538859970057348 1.0000000180025095e-35 5.5000000000000009
decision_type=2 2 2 2 2 2 2 2 2 2 2 2 2 2 2 2 2 2 2 2 2 2 2 2 2 2 2 2 2 2
left_child=26 3 7 -2 6 14 10 8 21 13 11 12 -4 -6 15 -5 -17 18 20 -16 -7 -3 -14 -19 -15 28 -1 -28 -26 -22
right_child=1 2 4 5 9 17 -8 -9 -10 -11 -12 -13 22 24 19 16 -18 23 -20 -21 29 -23 -24 -25 25 -27 27 -29 -30 -31
leaf_value=-0.1242851799358492 -0.10649691579726057 -0.086827597701758685 0.32048181438324863 -0.054413289839606575 0.19176890105009081 0.043488153786127186 0.056396525089969986 -0.059656629598716954 -0.015968909951737203 0.10200954711661465 0.075400528078952533 0.3566560786239833 0.13810457440891438 0.35381650009583082 -0.051745649170105358 0.2090110460050125 -0.11187821379552286 0.12796176465586079 -0.023320906858616867 0.0075430253528919952 0.098359786652881351 0.21638175998483936 0.26168403453630162 -0.0024643949748195237 0.63942871025396053 0.35697914863772251 -0.099773684251923012 -0.058219456521565918 0.38231652157559792 0.26409641545585222
leaf_weight=2888 2861 57 830 580 125 3481 691 1549 531 103 325 749 1050 248 4966 507 150 1767 1059 2465 664 465 384 282 327 238 6466 4561 73 175
leaf_count=2888 2861 57 830 580 125 3481 691 1549 531 103 325 749 1050 248 4966 507 150 1767 1059 2465 664 465 384 282 327 238 6466 4561 73 175
internal_value=0 0.04716 0.165407 -0.00115046 0.250106 0.0175745 0.209011 -0.00200587 0.0828004 0.398732 0.240604 0.258424 0.225926 0.428962 -0.0208524 0.0465862 0.135749 0.0624161 0.0442858 -0.0320785 0.0608588 0.183273 0.171197 0.110011 0.462426 0.504645 -0.0912405 -0.082586 0.592506 0.132929
internal_weight=0 26702 7745 18957 5143 16096 4029 2602 1053 1114 3338 3013 2264 1011 8668 1237 657 7428 5379 7431 4320 522 1434 2049 886 638 13915 11027 400 839
internal_count=40617 26702 7745 18957 5143 16096 4029 2602 1053 1114 3338 3013 2264 1011 8668 1237 657 7428 5379 7431 4320 522 1434 2049 886 638 13915 11027 400 839
is_linear=0
shrinkage=0.05


Tree=11
num_leaves=31
num_cat=0
split_feature=22 12 13 4 3 21 1 21 3 21 3 13 3 3 3 3 3 1 13 21 2 3 1 16 21 1 3 3 7 3
split_gain=63256 55065.7 37586 18507.1 13575.5 12650.7 7947.51 7886.74 6502.49 5290.78 6091.94 4989.41 4731.08 4665.49 4337.05 4132.77 3497.42 3374.91 3345.14 2173.96 2070.75 2034.98 1696.85 1882.98 1680.86 1828.65 1908.34 1764.19 1658.85 1630.06
threshold=1.0000000180025095e-35 1.0000000180025095e-35 1.0000000180025095e-35 1.0000000180025095e-35 5.5000000000000009 1.0000000180025095e-35 3.5000000000000004 1.0000000180025095e-35 9.5000000000000018 1.0000000180025095e-35 16.500000000000004 1.0000000180025095e-35 9.5000000000000018 7.5000000000000009 18.500000000000004 18.500000000000004 16.500000000000004 4.5000000000000009 1.0000000180025095e-35 1.0000000180025095e-35 5.5000000000000009 13.500000000000002 3.5000000000000004 1.0000000180025095e-35 1.0000000180025095e-35 3.5000000000000004 11.500000000000002 19.500000000000004 0.073860020170190915 22.500000000000004
decision_type=2 2 2 2 2 2 2 2 2 2 2 2 2 2 2 2 2 2 2 2 2 2 2 2 2 2 2 2 2 2
left_child=24 4 3 7 -2 12 8 13 11 -5 -11 -7 18 -3 20 22 -4 -14 -6 -18 -9 -10 -12 -24 -1 -26 -27 -28 -22 -8
right_child=1 2 16 9 5 6 29 14 21 10 15 -13 17 -15 -16 -17 19 -19 -20 -21 28 -23 23 -25 25 26 27 -29 -30 -31
leaf_value=-0.11130738860775491 -0.08375082332315946 0.26652950833070704 -0.089447553162513876 0.26880429767434039 0.16595792586782152 0.34172042982168493 0.12909676480154841 0.14866576935579576 -0.047392501858793734 0.31167509552524397 0.26115206389323525 -0.10368761766169753 -0.062938958015907431 0.052901528771443697 0.064932043686787663 0.35927067232683685 -0.033158595273839291 0.0149246272439961 -0.14343887940745489 0.1061845916506417 0.3151128529221956 0.027492028294916433 0.77178700043110071 0.44806010389168355 -0.098822003938742686 -0.0922843637076141 -0.0056778724031512733 -0.08935377584166336 0.14314377390313893 0.0071933578907423168
leaf_weight=4625 3936 306 1007 906 476 250 3310 303 1439 471 23 84 4607 1551 321 158 541 1994 107 580 1135 2455 227 56 4203 2001 2204 882 160 299
leaf_count=4625 3936 306 1007 906 476 250 3310 303 1439 471 23 84 4607 1551 321 158 541 1994 107 580 1135 2455 227 56 4203 2001 2204 882 160 299
internal_value=0 0.044802 0.157136 0.224933 -0.00109293 0.0205662 0.0644987 0.161561 0.0179791 0.354913 0.43835 0.229702 -0.0273597 0.0881036 0.232645 0.566936 -0.0218165 -0.0394183 0.109173 0.0389369 0.266334 -0.000181017 0.674162 0.707728 -0.0866784 -0.074417 -0.054253 -0.029593 0.293866 0.118997
internal_weight=0 26702 7745 5617 18957 15021 7837 3776 4228 1841 935 334 7184 1857 1919 464 2128 6601 583 1121 1598 3894 306 283 13915 9290 5087 3086 1295 3609
internal_count=40617 26702 7745 5617 18957 15021 7837 3776 4228 1841 935 334 7184 1857 1919 464 2128 6601 583 1121 1598 3894 306 283 13915 9290 5087 3086 1295 3609
is_linear=0
shrinkage=0.05


Tree=12
num_leaves=31
num_cat=0
split_feature=22 15 3 3 21 3 3 1 21 3 15 3 13 1 15 13 1 15 18 3 3 3 13 3 3 13 3 20 19 2
split_gain=57088.5 34959.1 22497.7 18997.6 17034 11060.7 13597.2 11683.3 6737.45 6728.08 6069.79 4885.61 16904.5 4220.52 3659.32 3084.84 2616.4 2486.51 2203.46 2159.81 2665.14 2743.3 3667.62 2121.26 6107.71 2262.12 2106.87 1764.45 2236.28 2596.39
threshold=1.0000000180025095e-35 -0.10978154806805925 5.5000000000000009 9.5000000000000018 1.0000000180025095e-35 14.500000000000002 19.500000000000004 3.5000000000000004 1.0000000180025095e-35 5.5000000000000009 -1.4307915349017037 8.5000000000000018 1.0000000180025095e-35 4.5000000000000009 1.1160205117865847 1.0000000180025095e-35 3.5000000000000004 -1.0059779041964854 1.0000000180025095e-35 18.500000000000004 5.5000000000000009 9.5000000000000018 1.0000000180025095e-35 15.500000000000002 19.500000000000004 1.0000000180025095e-35 18.500000000000004 1.0000000180025095e-35 1.0000000180025095e-35 5.5000000000000009
decision_type=2 2 2 2 2 2 2 2 2 2 2 2 2 2 2 2 2 2 2 2 2 2 2 2 2 2 2 2 2 2
left_child=-1 8 -3 15 13 -6 7 -7 17 -10 -11 12 -12 -5 -9 27 -13 -2 26 20 -19 22 -22 -15 25 -25 -16 28 -4 -30
right_child=1 2 3 4 5 6 -8 14 9 10 11 16 -14 23 18 -17 -18 19 -20 -21 21 -23 -24 24 -26 -27 -28 -29 29 -31
leaf_value=-0.082344526106806593 -0.087372758133955397 -0.068705333407086941 0.21586419962133996 -0.013299190444126655 0.053500536302823413 0.14887941246155373 0.09218286445505626 0.35003817314214247 -0.082321172688264568 -0.053611110089463898 0.30454430162527202 0.010560166666568272 -0.10313627851682568 0.011633276985480806 0.59393596954331429 -0.12293882129751905 0.098674766745831921 -0.094428124594904655 0.84222482266249488 -0.091155113495675538 0.13805107364731287 -0.021601883591335899 -0.12036872516722369 0.29108825638647312 0.011956315659964302 0.063400714094196994 0.28932747820089028 0.36713908355943092 -0.017479123813765391 0.39818934677515361
leaf_weight=13915 2587 1668 1091 2601 1512 735 1274 824 1317 1304 717 2472 394 634 167 49 1278 634 54 919 732 1444 169 460 602 143 86 437 42 356
leaf_count=13915 2587 1668 1091 2601 1512 735 1274 824 1317 1304 717 2472 394 634 167 49 1278 634 54 919 732 1444 169 460 602 143 86 437 42 356
internal_value=0 0.0425619 0.102476 0.128276 0.0977442 0.164605 0.218105 0.304077 -0.0120675 0.020263 0.0421776 0.0678736 0.159966 0.0276912 0.404935 0.268833 0.0405896 -0.0493684 0.552279 -0.024146 -0.00347415 0.0211164 0.0895794 0.0856662 0.124618 0.237093 0.490393 0.2788 0.252874 0.354325
internal_weight=0 26702 12735 11067 9092 4652 3140 1866 13967 7482 6165 4861 1111 4440 1131 1975 3750 6485 307 3898 2979 2345 901 1839 1205 603 253 1926 1489 398
internal_count=40617 26702 12735 11067 9092 4652 3140 1866 13967 7482 6165 4861 1111 4440 1131 1975 3750 6485 307 3898 2979 2345 901 1839 1205 603 253 1926 1489 398
is_linear=0
shrinkage=0.05


Tree=13
num_leaves=31
num_cat=0
split_feature=22 12 15 15 21 21 15 15 21 4 19 13 4 13 4 21 4 19 13 18 4 20 2 5 11 6 16 15 6 11
split_gain=51522.4 45751.7 34403.5 9163.01 8351.94 7778.38 6290.52 5923.85 4353.53 2843.71 2673.78 2600.26 2269.4 1760.36 1620.41 1516.97 1696.05 1460.83 1300.89 1269.15 1247.24 1161.18 1100 1915.69 951.707 938.83 932.784 920.943 851.303 844.834
threshold=1.0000000180025095e-35 1.0000000180025095e-35 -0.094258516495395836 -0.93819399966252259 1.0000000180025095e-35 1.0000000180025095e-35 0.94992407395908729 0.093570165533829811 1.0000000180025095e-35 -0.24753400862858013 1.0000000180025095e-35 1.0000000180025095e-35 0.23287942864208286 1.0000000180025095e-35 -0.72794744589924287 1.0000000180025095e-35 -0.46372005540037831 1.0000000180025095e-35 1.0000000180025095e-35 1.0000000180025095e-35 0.33857038484162866 1.0000000180025095e-35 5.5000000000000009 0.43933026389748764 -0.16939907299132553 1.0232069809836537 1.0000000180025095e-35 -1.0274514312053364 -0.12804600993566012 -0.16939907299132553
decision_type=2 2 2 2 2 2 2 2 2 2 2 2 2 2 2 2 2 2 2 2 2 2 2 2 2 2 2 2 2 2
left_child=15 4 3 19 12 9 10 14 18 -4 21 17 27 -8 28 -1 -17 22 -5 -3 -12 -7 23 -11 -23 26 -10 -2 -6 -9
right_child=1 2 5 8 7 6 13 29 25 11 20 -13 -14 -15 -16 16 -18 -19 -20 -21 -22 24 -24 -25 -26 -27 -28 -29 -30 -31
leaf_value=-0.10162479289856714 -0.085624205523836747 -0.053777729566242209 0.10904673027484613 0.063114454914648593 -0.0097351715884037224 0.21609313516472711 0.52525491038599903 0.045470037095979153 0.16631777597185557 0.23576298385345634 0.35810012399464064 0.051533504108720957 0.0014723213662257884 0.18395183810165949 0.026445840752648365 -0.091744517244492424 -0.048442358817787197 0.38576081492514774 -0.070293585996067581 0.32846056060357531 0.61796050350197029 0.23036751248975743 0.20541567636602071 0.70381469279527664 0.40817087794581575 0.030898773980637392 0.2876580165264192 -0.04188104817414879 -0.068464130788577632 0.095301616059328242
leaf_weight=4625 1637 1684 852 847 2448 973 376 1275 808 69 190 168 2701 42 2975 3891 5399 198 233 22 61 137 587 32 167 102 197 4541 825 2555
leaf_count=4625 1637 1684 852 847 2448 973 376 1275 808 69 190 168 2701 42 2975 3891 5399 198 233 22 61 137 587 32 167 102 197 4541 825 2555
internal_value=0 0.0404338 0.142828 0.0380039 -0.00140002 0.248768 0.319085 0.0297511 0.105754 0.176975 0.272067 0.231885 -0.0367577 0.490961 -0.000262201 -0.0782273 -0.0665789 0.266083 0.0343329 -0.0488485 0.421253 0.242744 0.231641 0.384057 0.328042 0.175434 0.190103 -0.0534718 -0.0245385 0.0787128
internal_weight=0 26702 7745 3893 18957 3852 1946 10078 2187 1906 1528 1054 8879 418 6248 13915 9290 886 1080 1706 251 1277 688 101 304 1107 1005 6178 3273 3830
internal_count=40617 26702 7745 3893 18957 3852 1946 10078 2187 1906 1528 1054 8879 418 6248 13915 9290 886 1080 1706 251 1277 688 101 304 1107 1005 6178 3273 3830
is_linear=0
shrinkage=0.05


Tree=14
num_leaves=31
num_cat=0
split_feature=22 12 15 3 21 15 21 4 15 21 3 3 5 4 19 3 3 19 3 3 3 1 3 20 15 20 15 3 4 21
split_gain=46499 41290.9 31049.2 11401.6 8835.71 8269.61 7019.98 6255.17 5677.19 3929.06 3092.37 3039.38 3353.32 2648.26 2413.09 2302.42 1864.41 1817.95 1776.49 1756.03 2726.93 2214.02 2088.83 1721.25 1695.27 1534.67 1437.62 1390.06 1542.74 1668.04
threshold=1.0000000180025095e-35 1.0000000180025095e-35 -0.094258516495395836 4.5000000000000009 1.0000000180025095e-35 -0.93819399966252259 1.0000000180025095e-35 -0.35802909920083253 0.94992407395908729 1.0000000180025095e-35 18.500000000000004 7.5000000000000009 1.0000000180025095e-35 0.17522981616960318 1.0000000180025095e-35 16.500000000000004 16.500000000000004 1.0000000180025095e-35 9.5000000000000018 12.500000000000002 19.500000000000004 4.5000000000000009 14.500000000000002 1.0000000180025095e-35 -0.61479750856537108 1.0000000180025095e-35 1.7509125031085124 8.5000000000000018 0.12238433806983016 1.0000000180025095e-35
decision_type=2 2 2 2 2 2 2 2 2 2 2 2 2 2 2 2 2 2 2 2 2 2 2 2 2 2 2 2 2 2
left_child=27 3 5 -2 13 -3 11 24 14 15 16 -4 -13 18 -8 23 -10 25 -5 -9 21 -21 -23 -7 -6 -14 -12 -1 -29 -30
right_child=1 2 6 4 7 9 8 19 10 -11 26 12 17 -15 -16 -17 -18 -19 -20 20 -22 22 -24 -25 -26 -27 -28 28 29 -31
leaf_value=-0.10519576932450658 -0.093304662993298218 -0.046406088286933267 0.34901550254348113 0.027915657860347061 -0.020749524807097589 0.062082007887644702 0.23060636676066851 0.054199209324231272 0.36610598512167158 0.16666198193432988 0.15413483752972551 0.086065021644217435 0.15201109043530775 0.020361760610972973 0.40019077033182954 -0.051500330166539966 0.64513619287260981 0.4104531325885783 -0.0550151113765463 0.093927904959780317 0.070265473848499876 0.15036627109219147 0.32101131826478602 0.30207278589964259 0.039890648474750906 0.34712213672464715 0.50025895191563508 -0.081476027223795877 -0.079492614276275547 -0.017128638613310314
leaf_weight=2888 2861 1706 207 752 2174 529 1277 1425 86 1107 90 982 474 2357 251 464 197 115 4571 475 1171 370 348 87 2453 128 45 6624 1847 2556
leaf_count=2888 2861 1706 207 752 2174 529 1277 1425 86 1107 90 982 474 2357 251 464 197 115 4571 475 1171 370 348 87 2453 128 45 6624 1847 2556
internal_value=0 0.0384121 0.135687 -0.00133002 0.0150181 0.0361037 0.23633 0.0504064 0.303131 0.100467 0.466413 0.168126 0.146088 -0.0237616 0.258463 0.0326163 0.560343 0.228294 -0.0432992 0.0980412 0.124469 0.177672 0.233074 0.0959768 0.0113988 0.193496 0.26951 -0.0743159 -0.0662284 -0.0432895
internal_weight=0 26702 7745 18957 16096 3893 3852 8416 1946 2187 418 1906 1699 7680 1528 1080 283 717 5323 3789 2364 1193 718 616 4627 602 135 13915 11027 4403
internal_count=40617 26702 7745 18957 16096 3893 3852 8416 1946 2187 418 1906 1699 7680 1528 1080 283 717 5323 3789 2364 1193 718 616 4627 602 135 13915 11027 4403
is_linear=0
shrinkage=0.05


Tree=15
num_leaves=31
num_cat=0
split_feature=22 15 3 3 21 3 3 1 15 3 3 13 3 13 21 13 1 13 21 3 3 3 3 3 13 3 3 6 19 20
split_gain=41963.8 26149.7 16772.1 15483.3 12765.8 8135.16 9386.83 10598.4 5561.62 6133.48 8177.59 15142.7 4765.45 4779.7 3706.37 3509.93 3486.59 3206.43 2656.76 2353.46 2215.31 3395.3 1840.53 3172.71 2743.65 1776.78 1672.5 1534.42 1456.55 1610.34
threshold=1.0000000180025095e-35 -0.10978154806805925 5.5000000000000009 9.5000000000000018 1.0000000180025095e-35 13.500000000000002 19.500000000000004 3.5000000000000004 -1.2553812781306088 5.5000000000000009 9.5000000000000018 1.0000000180025095e-35 15.500000000000002 1.0000000180025095e-35 1.0000000180025095e-35 1.0000000180025095e-35 4.5000000000000009 1.0000000180025095e-35 1.0000000180025095e-35 19.500000000000004 16.500000000000004 18.500000000000004 21.500000000000004 15.500000000000002 1.0000000180025095e-35 19.500000000000004 10.500000000000002 -0.1613192177656981 1.0000000180025095e-35 1.0000000180025095e-35
decision_type=2 2 2 2 2 2 2 2 2 2 2 2 2 2 2 2 2 2 2 2 2 2 2 2 2 2 2 2 2 2
left_child=-1 8 -3 17 16 -6 7 -7 -2 -10 11 18 -9 20 -12 -16 -5 -4 -11 26 -14 28 23 -18 25 -25 -17 -20 29 -22
right_child=1 2 3 4 5 6 -8 12 9 10 14 -13 13 -15 15 19 22 -19 27 -21 21 -23 -24 24 -26 -27 -28 -29 -30 -31
leaf_value=-0.070771842174927366 -0.061131311822654272 -0.062268933301289124 0.24552147685637082 -0.01384254330144831 0.028323908951088939 0.10620724868330254 0.071918708551529681 0.17990138785909823 -0.074788847825348656 0.12527189314640078 -0.046091304080788806 -0.090186708430001997 0.30038612309394708 0.16647327930208236 -0.00039901563787959784 -0.072281403187662366 0.011828352360890842 -0.14859004433987275 0.29504669909022024 -0.012096062294703218 0.47328821630626294 0.32098377088348018 -0.036462546886227035 0.26303300657940487 0.0090989369369144073 0.08837560318445542 0.19748143869472065 0.14461307815396887 0.77522151094789693 0.75568559616804132
leaf_weight=13794 3942 1621 1966 2685 1202 862 1281 371 1793 851 2794 697 191 189 2172 64 635 53 583 248 239 184 307 465 232 212 562 239 78 64
leaf_count=13794 3942 1621 1966 2685 1202 862 1281 371 1793 851 2794 697 191 189 2172 64 635 53 583 248 239 184 307 465 232 212 562 239 78 64
internal_value=0 0.0365715 0.0880658 0.109793 0.082268 0.14038 0.17932 0.242488 -0.0108313 0.00899106 0.0272879 0.105621 0.331754 0.391371 -0.0045012 0.0336481 0.0225544 0.235176 0.187197 0.118259 0.447595 0.497359 0.0753506 0.0975829 0.157488 0.20834 0.169902 0.251307 0.582538 0.532937
internal_weight=0 26782 12837 11216 9197 4661 3459 2178 13945 10003 8210 2370 1316 945 5840 3046 4536 2019 1673 874 756 565 1851 1544 909 677 626 822 381 303
internal_count=40576 26782 12837 11216 9197 4661 3459 2178 13945 10003 8210 2370 1316 945 5840 3046 4536 2019 1673 874 756 565 1851 1544 909 677 626 822 381 303
is_linear=0
shrinkage=0.05


Tree=16
num_leaves=31
num_cat=0
split_feature=22 12 15 3 15 21 15 4 21 21 3 3 4 21 3 13 4 3 18 15 3 3 3 3 6 15 11 3 3 4
split_gain=37872.3 34523 25567.4 9002.77 7485.15 7076.18 5198.11 5103.33 3211.12 2922.43 2799.54 2462.39 2456.97 2165.26 2450.51 1870.8 1682.91 1510.59 1672.22 1515.7 1509.18 1471.03 1462.69 2642.09 1460.28 1455.43 1322.62 2035.02 1320.69 1398.02
threshold=1.0000000180025095e-35 1.0000000180025095e-35 -0.029579218275965522 4.5000000000000009 -0.93819399966252259 1.0000000180025095e-35 1.0270217974366485 -0.35802909920083253 1.0000000180025095e-35 1.0000000180025095e-35 18.500000000000004 16.500000000000004 0.23287942864208286 1.0000000180025095e-35 7.5000000000000009 1.0000000180025095e-35 0.65564325344026619 18.500000000000004 1.0000000180025095e-35 1.9387411851377379 18.500000000000004 9.5000000000000018 12.500000000000002 19.500000000000004 0.14479429427065119 1.0513412135671543 0.13323720553741597 16.500000000000004 8.5000000000000018 0.12238433806983016
decision_type=2 2 2 2 2 2 2 2 2 2 2 2 2 2 2 2 2 2 2 2 2 2 2 2 2 2 2 2 2 2
left_child=28 3 4 -2 -3 12 10 24 -8 11 13 15 21 14 -4 -6 -16 -10 19 -19 -11 -5 -9 25 -7 -24 -15 -28 -1 -30
right_child=1 2 6 5 9 7 8 22 17 20 -12 -13 -14 26 16 -17 -18 18 -20 -21 -22 -23 23 -25 -26 -27 27 -29 29 -31
leaf_value=-0.097658204048051755 -0.084898356992701596 -0.043613101014395084 0.33959426077719979 0.024212962226704528 0.13349200747593587 0.023762280584462891 0.23516429647487103 0.047530651997206054 0.51183403805195105 0.17261375577732907 0.076970404443100743 -0.043585604895824172 0.022063189115802909 0.2116466158617587 0.10870705873538287 -0.105475478815405 0.28290397750849772 0.081228097117897399 0.68501895124262036 0.54253334452708557 0.023108771520823537 -0.050214238642635169 0.1474209145742362 0.057719083107912385 -0.044373011265835448 0.35436243790647259 0.23029066432427259 0.42565406013061025 -0.073960543286779298 -0.037515916802815796
leaf_weight=2834 2769 1672 171 772 594 3628 377 1454 251 1027 465 520 2265 685 897 95 164 69 22 24 202 4741 1111 1170 1004 92 303 238 6571 4389
leaf_count=2834 2769 1672 171 772 594 3628 377 1454 251 1027 465 520 2265 685 897 95 164 69 22 24 202 4741 1111 1170 1004 92 303 238 6571 4389
internal_value=0 0.034743 0.123493 -0.00156781 0.0378664 0.0126431 0.219491 0.0442944 0.337582 0.0937456 0.189473 0.0385522 -0.0217794 0.210756 0.163942 0.100543 0.135633 0.443077 0.293008 0.200275 0.148041 -0.039792 0.0870203 0.111217 0.00899375 0.163247 0.257799 0.316236 -0.0672332 -0.0593661
internal_weight=0 26782 7776 19006 4110 16237 3666 8459 743 2438 2923 1209 7778 2458 1232 689 1061 366 115 93 1229 5513 3827 2373 4632 1203 1226 541 13794 10960
internal_count=40576 26782 7776 19006 4110 16237 3666 8459 743 2438 2923 1209 7778 2458 1232 689 1061 366 115 93 1229 5513 3827 2373 4632 1203 1226 541 13794 10960
is_linear=0
shrinkage=0.05


Tree=17
num_leaves=31
num_cat=0
split_feature=22 12 15 3 15 1 11 21 21 15 3 3 13 21 3 21 21 13 19 3 3 3 13 3 3 3 13 1 19 18
split_gain=34179.8 31157 23074.6 8125 6755.35 6613.6 4833.01 4469.01 4058.45 3235.01 3152.3 3632.28 3825.73 2637.49 2222.3 1866.56 1759.51 1688.4 1686.39 1550.84 2105.5 1794.84 1660.97 1512.42 1390.3 1362.04 1339.26 1316.06 1289.63 1251.63
threshold=1.0000000180025095e-35 1.0000000180025095e-35 -0.029579218275965522 4.5000000000000009 -0.93819399966252259 3.5000000000000004 -0.30696101777711698 1.0000000180025095e-35 1.0000000180025095e-35 0.94992407395908729 9.5000000000000018 5.5000000000000009 1.0000000180025095e-35 1.0000000180025095e-35 16.500000000000004 1.0000000180025095e-35 1.0000000180025095e-35 1.0000000180025095e-35 1.0000000180025095e-35 11.500000000000002 19.500000000000004 14.500000000000002 1.0000000180025095e-35 13.500000000000002 22.500000000000004 18.500000000000004 1.0000000180025095e-35 4.5000000000000009 1.0000000180025095e-35 1.0000000180025095e-35
decision_type=2 2 2 2 2 2 2 2 2 2 2 2 2 2 2 2 2 2 2 2 2 2 2 2 2 2 2 2 2 2
left_child=-1 3 4 -2 -3 10 -4 -7 28 18 11 -5 16 14 17 -12 -13 -6 -10 22 21 -21 -9 -17 -25 -15 -11 -23 29 -8
right_child=1 2 6 5 13 7 8 19 9 26 15 12 -14 25 -16 23 -18 -19 -20 20 -22 27 -24 24 -26 -27 -28 -29 -30 -31
leaf_value=-0.063871586709160252 -0.080653439360476017 -0.041432445695842104 0.12707737447170123 -0.036725500576426789 0.12681740905423391 0.0066376234947206434 0.1297421964512139 0.071461019632577616 0.22580245391959175 0.47033343749064394 -0.057261478492651431 0.10695388029192308 -0.098100895233397933 0.16398306897707182 -0.041406325037376242 -0.047335451497977549 0.29179275420273326 -0.10020170112189493 0.4065018680929236 0.098570261325818836 0.054450959676052041 0.1162768106457865 -0.060993347517572918 0.031933281402115134 -0.079423651219729122 0.021953332635325076 0.16733495934707365 0.26738687117385368 0.28589449760814512 0.26793357021479797
leaf_weight=13794 2769 1672 1217 562 594 3747 772 871 687 330 3459 258 137 1027 520 1444 257 95 159 916 1209 234 325 2120 323 202 41 375 252 208
leaf_count=13794 2769 1672 1217 562 594 3747 772 871 687 330 3459 258 137 1027 520 1444 257 95 159 916 1209 234 325 2120 323 202 41 375 252 208
internal_value=0 0.0330058 0.117319 -0.00148942 0.035973 0.0120109 0.208516 0.0457068 0.248986 0.313748 -0.0182091 0.0564294 0.136725 0.0890584 0.0366246 -0.0305439 0.199194 0.0955158 0.259764 0.0829568 0.103731 0.142799 0.035468 -0.00676812 0.0172103 0.140639 0.436848 0.209325 0.185013 0.159073
internal_weight=0 26782 7776 19006 4110 16237 3666 7677 2449 1217 8560 1214 652 2438 1209 7346 515 689 846 3930 2734 1525 1196 3887 2443 1229 371 609 1232 980
internal_count=40576 26782 7776 19006 4110 16237 3666 7677 2449 1217 8560 1214 652 2438 1209 7346 515 689 846 3930 2734 1525 1196 3887 2443 1229 371 609 1232 980
is_linear=0
shrinkage=0.05


Tree=18
num_leaves=31
num_cat=0
split_feature=22 12 15 3 15 1 11 21 21 3 3 13 15 3 13 21 21 1 21 20 6 19 3 3 3 3 2 3 21 1
split_gain=30847.2 28119.2 20825.4 7332.82 6308.91 5968.77 4317.96 4033.29 3783.32 2844.95 3278.13 3452.72 2754.3 2538.88 4677.1 1901.45 1684.57 1637.45 1587.96 1583.96 1506.24 1438.27 1409.37 2458.04 1364.96 1296.79 1330.6 1254.75 1239.3 1323.47
threshold=1.0000000180025095e-35 1.0000000180025095e-35 -0.0047423677597042578 4.5000000000000009 -0.93819399966252259 3.5000000000000004 -0.30696101777711698 1.0000000180025095e-35 1.0000000180025095e-35 9.5000000000000018 5.5000000000000009 1.0000000180025095e-35 0.94992407395908729 16.500000000000004 1.0000000180025095e-35 1.0000000180025095e-35 1.0000000180025095e-35 1.5000000000000002 1.0000000180025095e-35 1.0000000180025095e-35 -0.1613192177656981 1.0000000180025095e-35 12.500000000000002 19.500000000000004 13.500000000000002 18.500000000000004 9.5000000000000018 22.500000000000004 1.0000000180025095e-35 3.5000000000000004
decision_type=2 2 2 2 2 2 2 2 2 2 2 2 2 2 2 2 2 2 2 2 2 2 2 2 2 2 2 2 2 2
left_child=28 3 4 -2 -3 9 -4 -7 -8 10 -5 18 21 14 19 -15 -11 -17 -12 20 -6 -10 -9 -24 -18 -14 -27 -26 -1 -30
right_child=1 2 6 5 13 7 8 22 12 16 11 -13 25 15 -16 17 24 -19 -20 -21 -22 -23 23 -25 27 26 -28 -29 29 -31
leaf_value=-0.081814094785427352 -0.07662076736323109 -0.039360823382124412 0.12182516606282666 -0.034889225352860431 0.17645412326677762 0.0063057421818713613 0.17629801288649008 0.040636796084479621 0.21915783571977185 -0.054398404818268381 0.10160618335181891 -0.093195850576144934 0.47687131163281526 -0.037634038124542211 -0.095096755778943803 -0.047097793958009851 -0.044968678666294198 0.14395830646595209 0.27720311869530134 0.29634300695562904 0.035177378337830308 0.38958810140427791 0.15224361880317183 0.051728412123917739 0.03033661750103523 0.49683487747928928 0.14179387927370174 -0.075452468657686636 -0.07086410771677408 -0.032732119787848755
leaf_weight=4615 2769 1672 1178 562 769 3747 1205 1497 667 3459 258 137 258 543 198 153 1444 420 257 198 250 152 1224 1209 2120 42 71 323 4169 5010
leaf_count=4615 2769 1672 1178 562 769 3747 1205 1497 667 3459 258 137 258 543 198 153 1444 420 257 198 250 152 1224 1209 2120 42 71 323 4169 5010
internal_value=0 0.0313555 0.111453 -0.00141495 0.0360086 0.0114104 0.200199 0.0434215 0.238748 -0.0172986 0.0536079 0.129889 0.301986 0.0857983 0.130272 0.0294097 -0.0290167 0.0929433 0.189234 0.166938 0.141793 0.250788 0.0788089 0.102296 -0.00642971 0.415006 0.273756 0.0163498 -0.060678 -0.0500512
internal_weight=0 26782 7776 19006 4203 16237 3573 7677 2395 8560 1214 652 1190 2531 1415 1116 7346 573 515 1217 1019 819 3930 2433 3887 371 113 2443 13794 9179
internal_count=40576 26782 7776 19006 4203 16237 3573 7677 2395 8560 1214 652 1190 2531 1415 1116 7346 573 515 1217 1019 819 3930 2433 3887 371 113 2443 13794 9179
is_linear=0
shrinkage=0.05


Tree=19
num_leaves=31
num_cat=0
split_feature=22 12 15 3 4 15 21 15 3 21 21 3 21 3 3 13 3 4 1 3 3 13 21 15 13 15 3 3 21 4
split_gain=27839.6 25377.6 18809.5 6617.87 5612.59 5497.63 4140.92 4056.4 2487.14 2306.12 2252.75 1753.88 1728.29 2192.4 1567.11 2208.79 2938.02 1503.67 1488.7 1438.35 1675.36 1770.9 1480 1407.76 1344.03 1257.39 1206.2 1202.59 1297.16 1600.43
threshold=1.0000000180025095e-35 1.0000000180025095e-35 -0.029579218275965522 4.5000000000000009 -0.67510196779946996 -0.93819399966252259 1.0000000180025095e-35 1.0270217974366485 18.500000000000004 1.0000000180025095e-35 1.0000000180025095e-35 16.500000000000004 1.0000000180025095e-35 7.5000000000000009 9.5000000000000018 1.0000000180025095e-35 5.5000000000000009 0.76613834401251879 5.5000000000000009 9.5000000000000018 5.5000000000000009 1.0000000180025095e-35 1.0000000180025095e-35 0.084256346590231734 1.0000000180025095e-35 -0.42386422022161269 18.500000000000004 8.5000000000000018 1.0000000180025095e-35 0.12238433806983016
decision_type=2 2 2 2 2 2 2 2 2 2 2 2 2 2 2 2 2 2 2 2 2 2 2 2 2 2 2 2 2 2
left_child=27 3 5 -2 19 -3 14 8 12 -9 11 24 13 -4 15 16 -6 -15 -11 20 -5 22 -22 -8 -7 -21 -12 -1 -29 -30
right_child=1 2 7 4 6 10 23 9 -10 18 26 -13 -14 17 -16 -17 -18 -19 -20 25 21 -23 -24 -25 -26 -27 -28 28 29 -31
leaf_value=-0.086676934164545874 -0.072789728785732158 -0.037392782391508922 0.30608202385449274 -0.03810566660469851 -0.0049858895232534487 0.1121120694982396 0.03947780378120315 0.2057447665625447 0.055661917799402799 0.44589998600469238 0.14996379980021232 -0.037454306686995557 0.22379136671909233 0.090049436433417424 -0.01005259071149568 -0.14371360407935249 0.2259749938385873 0.26646266301437249 0.2229538469158468 -0.054356002332437175 0.044459548865572789 -0.094240966692566874 0.23377560906860817 0.093477193503237091 -0.090436780084120608 -0.0077631650844464583 0.01630605222786417 -0.073748509240385729 -0.055047954484967826 -0.0055680364182900798
leaf_weight=2834 2769 1672 171 444 270 594 2282 377 465 261 1027 520 1226 922 3948 99 281 139 105 3178 204 100 209 2562 95 2660 202 3800 4636 2524
leaf_count=2834 2769 1672 171 444 270 594 2282 377 465 261 1027 520 1226 922 3948 99 281 139 105 3178 204 100 209 2562 95 2660 202 3800 4636 2524
internal_value=0 0.0297878 0.10588 -0.0013442 0.0108399 0.0324362 0.0357778 0.188219 0.161702 0.292538 0.0803255 0.0318667 0.181762 0.139938 0.00179154 0.073731 0.1128 0.113161 0.38194 -0.0238127 0.0330051 0.0945512 0.140264 0.0680382 0.0841844 -0.0331267 0.127996 -0.0576441 -0.0501369 -0.0376056
internal_weight=0 26782 7776 19006 16237 4110 9442 3666 2923 743 2438 1209 2458 1232 4598 650 551 1061 366 6795 957 513 413 4844 689 5838 1229 13794 10960 7160
internal_count=40576 26782 7776 19006 16237 4110 9442 3666 2923 743 2438 1209 2458 1232 4598 650 551 1061 366 6795 957 513 413 4844 689 5838 1229 13794 10960 7160
is_linear=0
shrinkage=0.05


Tree=20
num_leaves=31
num_cat=0
split_feature=22 12 15 3 15 4 3 21 21 21 21 3 4 13 15 13 3 11 1 15 15 3 1 21 3 3 13 3 2 19
split_gain=24818.7 22782.3 16830.3 6202.55 5619.74 5566.09 4059.53 3031.99 2884.32 2882.81 2234.64 1781.59 2630 1775.31 1725.91 1596.72 1828.31 1453.27 1317.91 1263.23 1235.73 1138.5 1146.19 1381.84 1627.41 1111.43 997.544 2139.31 938.025 1415.49
threshold=1.0000000180025095e-35 1.0000000180025095e-35 -0.73484228606063362 4.5000000000000009 1.0270217974366485 0.17522981616960318 18.500000000000004 1.0000000180025095e-35 1.0000000180025095e-35 1.0000000180025095e-35 1.0000000180025095e-35 7.5000000000000009 0.44426134104117448 1.0000000180025095e-35 -0.47922969949744493 1.0000000180025095e-35 8.5000000000000018 0.29831153928036575 5.5000000000000009 -1.3014329384628431 -0.029579218275965522 11.500000000000002 3.5000000000000004 1.0000000180025095e-35 19.500000000000004 9.5000000000000018 1.0000000180025095e-35 7.5000000000000009 14.500000000000002 1.0000000180025095e-35
decision_type=2 2 2 2 2 2 2 2 2 2 2 2 2 2 2 2 2 2 2 2 2 2 2 2 2 2 2 2 2 2
left_child=21 3 19 -2 6 9 7 11 -7 25 -6 13 -13 20 -11 17 -17 -9 28 -3 -4 -1 -23 -24 -25 -5 27 -21 29 -12
right_child=1 2 4 5 10 8 -8 15 -10 14 18 12 -14 -15 -16 16 -18 -19 -20 26 -22 22 23 24 -26 -27 -28 -29 -30 -31
leaf_value=-0.073402245302325281 -0.069893469723143337 -0.063823437326473192 0.148300705247737 0.020350106365051066 0.18768554347301836 0.016100483124669083 0.02124755415179138 0.17295885954918483 0.093504128289046695 -0.012964811959538367 0.40470801236781667 0.04772828451632978 0.19871508708173358 -0.12451301624900418 0.040663967332771583 -0.1656620910090785 0.14984640389007364 0.26778887105160187 0.20601825089287013 0.22577170993387702 0.337036160084633 -0.065040211744003235 -0.06035343123287288 0.016278696344732359 -0.064441496928136457 -0.044955775398505891 -0.025628894591827812 -0.00091195135394467374 0.32489567455738344 0.75678231621660841
leaf_weight=5080 2815 935 188 761 375 2361 776 1174 2455 2872 94 1308 370 38 3141 62 177 616 100 150 161 3631 2014 2168 877 4528 662 340 134 41
leaf_count=5080 2815 935 188 761 375 2361 776 1174 2455 2872 94 1308 370 38 3141 62 177 616 100 150 161 3631 2014 2168 877 4528 662 340 134 41
internal_value=0 0.0280789 0.100587 -0.00141377 0.145655 0.0105462 0.126102 0.145977 0.0555577 -0.00863411 0.273643 0.103324 0.081021 0.200031 0.0150492 0.189386 0.067999 0.205593 0.360999 -0.0206447 0.235368 -0.0545983 -0.043606 -0.0282219 -0.00696978 -0.0355593 0.0144005 0.068481 0.418612 0.511634
internal_weight=0 26634 7701 18933 5614 16118 4870 4094 4816 11302 744 2065 1678 387 6013 2029 239 1790 369 2087 349 13770 8690 5059 3045 5289 1152 490 269 135
internal_count=40404 26634 7701 18933 5614 16118 4870 4094 4816 11302 744 2065 1678 387 6013 2029 239 1790 369 2087 349 13770 8690 5059 3045 5289 1152 490 269 135
is_linear=0
shrinkage=0.05


Tree=21
num_leaves=31
num_cat=0
split_feature=22 12 13 4 3 3 13 1 3 21 21 3 15 3 21 3 3 18 1 3 19 21 21 1 2 3 3 19 15 2
split_gain=22398.8 20561.1 15282.7 8775.19 5715.07 5811.15 7611.2 6151.07 4909.72 3262.46 2633.38 3026.1 3737.46 2274.61 2274.49 2058.14 1802.08 1681.11 1557.82 1517.33 1447.96 1432.61 1416.11 1393.42 1475.92 1367.24 3015.52 1347.95 1294.08 1226.95
threshold=1.0000000180025095e-35 1.0000000180025095e-35 1.0000000180025095e-35 -0.35802909920083253 5.5000000000000009 9.5000000000000018 1.0000000180025095e-35 4.5000000000000009 8.5000000000000018 1.0000000180025095e-35 1.0000000180025095e-35 16.500000000000004 0.18619092058405398 18.500000000000004 1.0000000180025095e-35 8.5000000000000018 12.500000000000002 1.0000000180025095e-35 3.5000000000000004 22.500000000000004 1.0000000180025095e-35 1.0000000180025095e-35 1.0000000180025095e-35 5.5000000000000009 5.5000000000000009 19.500000000000004 14.500000000000002 1.0000000180025095e-35 -1.4923662268066014 22.500000000000004
decision_type=2 2 2 2 2 2 2 2 2 2 2 2 2 2 2 2 2 2 2 2 2 2 2 2 2 2 2 2 2 2
left_child=-1 4 3 8 -2 6 -6 14 18 -9 20 29 -13 27 -7 -4 -16 -15 22 28 23 -10 -3 -5 -25 26 -11 -14 -18 -12
right_child=1 2 15 10 5 7 -8 9 21 25 11 12 13 17 16 -17 19 -19 -20 -21 -22 -23 -24 24 -26 -27 -28 -29 -30 -31
leaf_value=-0.051868427056219295 -0.055077465941354146 0.13346236166694472 -0.089401971127906987 0.10075337943131234 0.18089576778426278 -0.043764802164799423 -0.11989633824307917 0.0096050699540146476 -0.0037481711882147704 0.082180942215666339 0.22491892893734633 0.099072342434229743 0.42011010524376424 0.16804090136041244 -0.042864601871747288 0.015564260990115906 -0.047915467721303506 0.57199174165725708 0.01814059338776778 -0.063936756014756638 0.26034983677872975 0.079585485796085112 0.26119106222021349 0.50822241347889574 0.17643303124136048 0.045165146540502271 0.24997925250890091 0.66092754022280387 0.046528965407745274 0.068941081076860436
leaf_weight=13770 3923 434 701 812 977 4577 268 1971 1037 930 451 131 258 132 1442 1399 415 32 141 443 268 1026 434 43 152 733 376 75 2878 175
leaf_count=13770 3923 434 701 812 977 4577 268 1971 1037 930 451 131 258 132 1442 1399 415 32 141 443 268 1026 434 43 152 733 376 75 2878 175
internal_value=0 0.026675 0.0955578 0.138687 -0.00134308 0.0127009 0.116147 0.00334452 0.0819028 0.0554758 0.207664 0.259111 0.336659 0.399282 -0.0180852 -0.0194745 0.00461389 0.246861 0.172287 0.0229394 0.157064 0.0376965 0.197327 0.129576 0.249597 0.0998168 0.13049 0.474348 0.0346266 0.181315
internal_weight=0 26634 7701 5601 18933 15010 1245 13765 3072 4010 2529 1254 628 497 9755 2100 5178 164 1009 3736 1275 2063 868 1007 195 2039 1306 333 3293 626
internal_count=40404 26634 7701 5601 18933 15010 1245 13765 3072 4010 2529 1254 628 497 9755 2100 5178 164 1009 3736 1275 2063 868 1007 195 2039 1306 333 3293 626
is_linear=0
shrinkage=0.05


Tree=22
num_leaves=31
num_cat=0
split_feature=22 12 15 3 3 17 1 15 3 17 21 4 17 21 21 21 3 3 3 3 1 3 3 20 11 15 11 1 19 15
split_gain=20215 18556.4 14159.3 5157.85 5244.56 6869.1 5551.34 4706.62 3081.04 3735.04 2944.37 2692.87 2130.54 2145.95 2052.73 2045.08 1797.64 2107.76 1635.7 1534.45 1407.48 1233.94 2721.51 1206.68 1109.21 1098.71 1089.62 1106.63 1086.61 1058.17
threshold=1.0000000180025095e-35 1.0000000180025095e-35 -0.73484228606063362 5.5000000000000009 9.5000000000000018 1.0000000180025095e-35 4.5000000000000009 0.38022881524234492 8.5000000000000018 1.0000000180025095e-35 1.0000000180025095e-35 0.12238433806983016 1.0000000180025095e-35 1.0000000180025095e-35 1.0000000180025095e-35 1.0000000180025095e-35 16.500000000000004 18.500000000000004 13.500000000000002 22.500000000000004 2.5000000000000004 19.500000000000004 14.500000000000002 1.0000000180025095e-35 0.29831153928036575 -1.3014329384628431 -0.77467163004880824 5.5000000000000009 1.0000000180025095e-35 0.1028839844774279
decision_type=2 2 2 2 2 2 2 2 2 2 2 2 2 2 2 2 2 2 2 2 2 2 2 2 2 2 2 2 2 2
left_child=-1 3 25 -2 5 26 14 8 9 23 -8 -9 13 -13 -6 -10 28 -18 -16 29 -17 22 -12 -4 -23 -3 -5 -28 -15 -20
right_child=1 2 7 4 6 -7 10 11 15 -11 21 12 -14 16 18 20 17 -19 19 -21 -22 24 -24 -25 -26 -27 27 -29 -30 -31
leaf_value=-0.049275005573590103 -0.052323593211657263 -0.060685727271017315 0.16269885124052813 0.091173030956053905 -0.041576562519696492 -0.11390152072061355 0.009124817279517014 0.13139515733909732 0.011287894716419933 -0.11403830757266598 0.078071896127495238 0.19619793093788609 0.07732568790559613 0.11772652208258252 -0.032498160262770741 0.027306167095718637 0.49511817846086192 0.23673471317680417 0.019085477293666959 -0.060739918424207597 0.14841864389073708 -0.016374680855752607 0.23748028975653837 0.30048074369163569 0.10672274434743792 0.012266731238398483 0.23004482556576106 0.035274319283394931 0.44148589092142443 0.085458505746835195
leaf_weight=13770 3923 935 922 293 4577 268 1971 1059 1094 114 930 492 168 109 1902 359 227 121 1969 443 723 380 376 192 353 1152 601 83 34 864
leaf_count=13770 3923 935 922 293 4577 268 1971 1059 1094 114 930 492 168 109 1902 359 227 121 1969 443 723 380 376 192 353 1152 601 83 34 864
internal_value=0 0.0253412 0.0907799 -0.00127593 0.0120658 0.11034 0.00317729 0.132117 0.0952288 0.158551 0.052702 0.188935 0.241876 0.269999 -0.0171809 0.0594938 0.34395 0.405278 0.00438319 0.025796 0.108234 0.094826 0.123966 0.186446 0.0429069 -0.0204168 0.171851 0.20641 0.194704 0.0393277
internal_weight=0 26634 7701 18933 15010 1245 13765 5614 3404 1228 4010 2210 1151 983 9755 2176 491 348 5178 3276 1082 2039 1306 1114 733 2087 977 684 143 2833
internal_count=40404 26634 7701 18933 15010 1245 13765 5614 3404 1228 4010 2210 1151 983 9755 2176 491 348 5178 3276 1082 2039 1306 1114 733 2087 977 684 143 2833
is_linear=0
shrinkage=0.05


Tree=23
num_leaves=31
num_cat=0
split_feature=22 12 15 3 15 15 3 1 3 13 5 3 15 20 2 2 3 2 15 3 3 3 2 13 3 15 3 19 3 1
split_gain=18244 16747.1 12785 4732.5 4422.85 3905.37 3054.06 2690.48 1972.66 1663.19 1969.39 2806.68 1631.24 1543.63 1499.87 2410.57 1383.57 1306.45 1265.79 1246.79 1224.11 1654.14 1183.17 1105.74 1068.45 1073.93 1040.31 1181.96 1027.5 1034.44
threshold=1.0000000180025095e-35 1.0000000180025095e-35 -0.50096194369917357 4.5000000000000009 0.76209539192986187 1.0270217974366485 18.500000000000004 2.5000000000000004 19.500000000000004 1.0000000180025095e-35 0.25987679323986912 7.5000000000000009 -1.3014329384628431 1.0000000180025095e-35 13.500000000000002 18.500000000000004 17.500000000000004 18.500000000000004 -1.1198134690626829 22.500000000000004 9.5000000000000018 5.5000000000000009 24.500000000000004 1.0000000180025095e-35 16.500000000000004 0.42938508188911212 18.500000000000004 1.0000000180025095e-35 11.500000000000002 3.5000000000000004
decision_type=2 2 2 2 2 2 2 2 2 2 2 2 2 2 2 2 2 2 2 2 2 2 2 2 2 2 2 2 2 2
left_child=28 3 12 -2 7 6 9 20 18 10 11 -4 -3 -14 -7 26 -11 -18 -9 -6 21 -5 -19 -23 -12 -26 27 -16 -1 -30
right_child=1 2 5 4 19 14 -8 8 -10 16 24 -13 13 -15 15 -17 17 22 -20 -21 -22 23 -24 -25 25 -27 -28 -29 29 -31
leaf_value=-0.064674961166834466 -0.061028744332214446 -0.057651442386568552 0.23605460206937534 -0.045919933080806392 0.087461919067459981 0.30547497935669743 0.019618194721147626 -0.015800606682761096 -0.027291289395320013 -0.058042106153583864 0.1793927720553051 0.10023323281559607 0.013719359858085513 0.23138598736029034 -0.018334564910645581 0.26177849389810481 0.032871627762521567 0.60240588771800208 0.040474144966604175 -0.023445456267719898 -0.039081101074608882 0.13403784577045696 0.12780619929062909 -0.078907405323273436 0.16018223328164954 0.40592457334995269 -0.22091046724468472 0.40405928411267023 -0.056731029433723823 -0.021753670431988878
leaf_weight=5080 2815 935 460 396 2008 389 720 1237 1991 199 478 2197 1540 86 67 226 95 24 5199 290 4577 346 29 74 69 125 40 22 3631 5059
leaf_count=5080 2815 935 460 396 2008 389 720 1237 1991 199 478 2197 1540 86 67 226 95 24 5199 290 4577 346 29 74 69 125 40 22 3631 5059
internal_value=0 0.0240742 0.0862409 -0.00121213 0.0092348 0.131716 0.113786 -0.00144557 0.016203 0.13223 0.143088 0.123748 -0.00502815 0.0252319 0.237656 0.163342 0.0280592 0.143831 0.0296581 0.0734658 -0.0290229 0.0273942 0.342719 0.0965189 0.219558 0.318521 -0.00911264 0.0860774 -0.0468113 -0.0363685
internal_weight=0 26634 7701 18933 16118 5140 4396 13820 8427 3676 3329 2657 2561 1626 744 355 347 148 6436 2298 5393 816 53 420 672 194 129 89 13770 8690
internal_count=40404 26634 7701 18933 16118 5140 4396 13820 8427 3676 3329 2657 2561 1626 744 355 347 148 6436 2298 5393 816 53 420 672 194 129 89 13770 8690
is_linear=0
shrinkage=0.05


Tree=24
num_leaves=31
num_cat=0
split_feature=22 12 15 21 21 15 15 4 13 20 15 6 18 2 15 19 6 16 18 1 21 4 2 21 13 6 4 5 19 2
split_gain=16465.2 15114.3 11603.6 3982.37 3604.36 3340.1 2835.84 2051.17 1345.74 1198.21 1156.65 1113.91 1106.31 1290.12 1172.66 1037.95 1768.47 1232.65 2295.2 1066.95 971.457 1009.87 940.872 936.892 948.428 1284.05 870.071 838.927 820.016 1143.01
threshold=1.0000000180025095e-35 1.0000000180025095e-35 -0.73484228606063362 1.0000000180025095e-35 1.0000000180025095e-35 1.0270217974366485 0.093570165533829811 0.28572490674185586 1.0000000180025095e-35 1.0000000180025095e-35 -1.0059779041964854 -0.19459242559573606 1.0000000180025095e-35 9.5000000000000018 1.7509125031085124 1.0000000180025095e-35 -0.22786563342577401 1.0000000180025095e-35 1.0000000180025095e-35 2.5000000000000004 1.0000000180025095e-35 0.069538859970057348 8.5000000000000018 1.0000000180025095e-35 1.0000000180025095e-35 0.377706749080917 -1.7896611422674078 -1.0615533088753206 1.0000000180025095e-35 5.5000000000000009
decision_type=2 2 2 2 2 2 2 2 2 2 2 2 2 2 2 2 2 2 2 2 2 2 2 2 2 2 2 2 2 2
left_child=20 4 23 7 10 9 11 28 -9 15 -2 27 13 14 -7 17 -17 18 -5 -19 -1 -22 -18 -3 25 26 -25 -6 -4 -30
right_child=1 2 3 5 6 12 -8 8 -10 -11 -12 -13 -14 -15 -16 16 22 19 -20 -21 21 -23 -24 24 -26 -27 -28 -29 29 -31
leaf_value=-0.063184862784038329 -0.059686800553933099 -0.054579416167264749 0.034835324397938121 0.02791677946274216 -0.018858082758951573 0.28966910243034366 0.052989010808691311 0.17040275479757688 0.013581087897647415 0.21781868336627774 -0.015198259573446947 -0.033541110182173754 0.45893222154226421 0.17340037834882324 0.66477967171833441 0.26176553812466169 -0.2478030297011137 0.053863952493551998 0.16992333991742437 0.23319827077007785 -0.04799353182119178 -0.013753882160885226 0.1058026883751154 -0.032009506180625535 -0.019106869111661869 -0.073324482300027152 0.1879426502827555 0.02769847200531346 -0.13545945173985249 0.16135004023373298
leaf_weight=4612 1849 973 1640 754 1444 74 3849 718 169 414 6962 1896 86 180 29 285 25 116 457 291 5695 3463 76 58 757 99 200 2933 37 263
leaf_count=4612 1849 973 1640 754 1444 74 3849 718 169 414 6962 1896 86 180 29 285 25 116 457 291 5695 3463 76 58 757 99 200 2933 37 263
internal_value=0 0.0228705 0.0819289 0.11935 -0.00115153 0.161763 0.0192027 0.0775371 0.140524 0.14038 -0.0245342 -0.00152804 0.301882 0.254156 0.395283 0.124382 0.198055 0.106807 0.0815064 0.182086 -0.0444707 -0.0350462 0.0182765 -0.0187335 0.0125754 0.0797559 0.138496 0.0123392 0.0487387 0.124744
internal_weight=0 26634 7701 5614 18933 2787 10122 2827 887 2418 8811 6273 369 283 103 2004 386 1618 1211 407 13770 9158 101 2087 1114 357 258 4377 1940 300
internal_count=40404 26634 7701 5614 18933 2787 10122 2827 887 2418 8811 6273 369 283 103 2004 386 1618 1211 407 13770 9158 101 2087 1114 357 258 4377 1940 300
is_linear=0
shrinkage=0.05


Tree=25
num_leaves=31
num_cat=0
split_feature=22 12 15 15 19 15 21 21 15 4 21 21 6 18 6 20 1 21 2 21 5 5 18 20 1 16 11 1 16 20
split_gain=14608.3 12777.6 11628.1 3455.36 2623.42 2229.08 2181.86 1996.94 2083.07 1664.86 1550.69 1422.26 1307.28 1241.42 1200.76 1161.03 915.192 926.133 883.66 895.389 881.411 839.892 741.19 1243.65 1675.66 1364.23 1134.38 885.525 732.63 708.437
threshold=1.0000000180025095e-35 1.0000000180025095e-35 -0.10978154806805925 0.084256346590231734 1.0000000180025095e-35 -1.2367536402434129 1.0000000180025095e-35 1.0000000180025095e-35 0.80814705226209604 -0.67510196779946996 1.0000000180025095e-35 1.0000000180025095e-35 -0.19459242559573606 1.0000000180025095e-35 1.0232069809836537 1.0000000180025095e-35 3.5000000000000004 1.0000000180025095e-35 10.500000000000002 1.0000000180025095e-35 0.74385736561950677 -1.0615533088753206 1.0000000180025095e-35 1.0000000180025095e-35 5.5000000000000009 1.0000000180025095e-35 0.600947817809107 5.5000000000000009 1.0000000180025095e-35 1.0000000180025095e-35
decision_type=2 2 2 2 2 2 2 2 2 2 2 2 2 2 2 2 2 2 2 2 2 2 2 2 2 2 2 2 2 2
left_child=16 3 5 11 7 -3 -7 22 29 -6 -5 -2 21 15 28 -10 -1 -18 19 -11 -17 -13 23 25 -25 -4 -24 -27 -8 -9
right_child=1 2 4 10 9 6 14 8 13 18 -12 12 -14 -15 -16 20 17 -19 -20 -21 -22 -23 26 24 -26 27 -28 -29 -30 -31
leaf_value=-0.057294122940455799 -0.037064649360578038 -0.048856711045353329 -0.027597587451300937 0.0017974050516052446 0.11348958145515316 -0.0083868665823146043 0.078084546801496957 0.10202470242203031 0.11924114124684115 0.25818001183144973 0.047470731066224438 -0.018571317372692901 -0.036318041082793899 0.40514552483280886 -0.055061895071963053 0.23509038954973224 -0.052645263239446564 -0.017863958974181797 0.23396390901757114 0.52170902712950629 0.53898791364010645 0.028530523926774583 0.092093057942475395 0.096221935032121314 0.44999485998036892 0.081758261026080817 0.2955421719011822 0.39897721012433374 0.1781705247243546 0.19031870997635028
leaf_weight=5774 5331 1053 517 3571 239 1380 1059 936 169 66 3875 1398 1913 103 148 80 3109 4979 353 63 34 2930 337 351 37 264 86 24 221 300
leaf_count=5774 5331 1053 517 3571 239 1380 1059 936 169 66 3875 1398 1913 103 148 80 3109 4979 353 63 34 2930 337 351 37 264 86 24 221 300
internal_value=0 0.0211202 0.0749222 -0.00100267 0.135133 0.0131826 0.0364474 0.115927 0.15512 0.221388 0.0255664 -0.0180985 -0.00189788 0.256514 0.0797746 0.202419 -0.0420888 -0.0312338 0.27489 0.38688 0.325726 0.013316 0.0765887 0.0564253 0.129958 0.0209835 0.133456 0.108193 0.095365 0.123455
internal_weight=0 26838 7820 19018 3959 3861 2808 3238 1622 721 7446 11572 6241 386 1428 283 13862 8088 482 129 114 4328 1616 1193 388 805 423 288 1280 1236
internal_count=40700 26838 7820 19018 3959 3861 2808 3238 1622 721 7446 11572 6241 386 1428 283 13862 8088 482 129 114 4328 1616 1193 388 805 423 288 1280 1236
is_linear=0
shrinkage=0.05


Tree=26
num_leaves=31
num_cat=0
split_feature=22 12 15 15 19 15 15 21 21 15 18 21 1 21 2 6 2 21 21 1 6 1 18 11 20 16 1 1 2 15
split_gain=13184 11531.8 10494.4 3118.46 2367.64 2054.74 1856.19 1747.71 1736.23 1457.39 1429.56 1399.49 1323.64 1283.59 1242.5 1179.82 1060.54 890.506 826.31 896.918 798.165 787.886 768.319 1010.25 854.002 1234.93 928.356 799.186 704.693 686.395
threshold=1.0000000180025095e-35 1.0000000180025095e-35 -0.10978154806805925 0.084256346590231734 1.0000000180025095e-35 -0.87661930775762487 2.4096064761751914 1.0000000180025095e-35 1.0000000180025095e-35 0.79262402068943283 1.0000000180025095e-35 1.0000000180025095e-35 2.5000000000000004 1.0000000180025095e-35 3.5000000000000004 -0.19459242559573606 10.500000000000002 1.0000000180025095e-35 1.0000000180025095e-35 4.5000000000000009 1.0232069809836537 2.5000000000000004 1.0000000180025095e-35 0.600947817809107 1.0000000180025095e-35 1.0000000180025095e-35 3.5000000000000004 5.5000000000000009 28.500000000000004 0.56805749727157095
decision_type=2 2 2 2 2 2 2 2 2 2 2 2 2 2 2 2 2 2 2 2 2 2 2 2 2 2 2 2 2 2
left_child=18 3 5 13 6 -3 8 -7 22 -10 28 -5 29 -2 -14 21 17 -16 -1 -20 -9 -15 24 -24 25 -4 -26 -27 -11 -6
right_child=1 2 4 11 12 7 -8 20 9 10 -12 -13 14 15 16 -17 -18 -19 19 -21 -22 -23 23 -25 26 27 -28 -29 -30 -31
leaf_value=-0.057138813765401766 -0.035211416928581873 -0.025842966050363316 -0.026591927313098784 0.0017075350554255722 0.17917722685745471 0.00046304037504068315 0.53089976373773362 0.10712652645824899 0.11704809080138288 0.14441497774273157 0.38923978848821106 0.045097194324481414 -0.093410576820373542 -0.010667829737034175 0.2670981613663776 -0.034502139326851471 0.22761760058611169 0.54089512587116484 -0.042749911907104476 -0.010020636507924001 -0.048028894671453881 0.032167702803386461 0.088653502775105975 0.28076506029641213 0.03463360351247665 0.077670347316112998 0.19077429450016911 0.37902834688623749 0.41792154999879694 -0.013368341363506554
leaf_weight=4660 5331 1833 513 3571 108 1007 26 930 1231 250 102 3875 25 1972 62 1913 388 57 5982 3220 91 2356 335 86 195 264 186 24 26 81
leaf_count=4660 5331 1833 513 3571 108 1007 26 930 1231 250 102 3875 25 1972 62 1913 388 57 5982 3220 91 2356 335 86 195 264 186 24 26 81
internal_value=0 0.0200642 0.0711761 -0.000952533 0.128377 0.0125235 0.110131 0.0472008 0.106725 0.143417 0.229291 0.0242881 0.210319 -0.0171936 0.250698 -0.00180299 0.267666 0.398245 -0.0399844 -0.0312972 0.0932978 0.0126502 0.0698954 0.127897 0.0492365 0.0199251 0.11086 0.102784 0.17018 0.0966577
internal_weight=0 26838 7820 19018 3959 3861 3238 2028 3212 1609 378 7446 721 11572 532 6241 507 119 13862 9202 1021 4328 1603 421 1182 801 381 288 276 189
internal_count=40700 26838 7820 19018 3959 3861 3238 2028 3212 1609 378 7446 721 11572 532 6241 507 119 13862 9202 1021 4328 1603 421 1182 801 381 288 276 189
is_linear=0
shrinkage=0.05


Tree=27
num_leaves=31
num_cat=0
split_feature=22 12 15 15 19 13 15 21 6 4 15 18 21 21 21 6 2 1 21 11 21 5 2 21 16 18 11 20 16 1
split_gain=11898.5 10407.4 9471.15 2814.41 2136.8 1883.1 1675.21 1566.95 1369.12 1361.68 1315.29 1290.18 1263.04 1218.36 1158.44 1064.79 875.275 788.482 748.314 727.228 720.586 718.209 717.572 731.223 708.658 693.408 911.749 770.737 1114.52 837.842
threshold=1.0000000180025095e-35 1.0000000180025095e-35 -0.10978154806805925 0.084256346590231734 1.0000000180025095e-35 1.0000000180025095e-35 2.4096064761751914 1.0000000180025095e-35 0.2446139177607651 -0.67510196779946996 0.79262402068943283 1.0000000180025095e-35 1.0000000180025095e-35 1.0000000180025095e-35 1.0000000180025095e-35 -0.19459242559573606 5.5000000000000009 3.5000000000000004 1.0000000180025095e-35 -1.6137994932421362 1.0000000180025095e-35 -1.0615533088753206 10.500000000000002 1.0000000180025095e-35 1.0000000180025095e-35 1.0000000180025095e-35 0.600947817809107 1.0000000180025095e-35 1.0000000180025095e-35 3.5000000000000004
decision_type=2 2 2 2 2 2 2 2 2 2 2 2 2 2 2 2 2 2 2 2 2 2 2 2 2 2 2 2 2 2
left_child=17 3 5 14 6 8 7 25 13 -6 -9 -12 -5 -3 -2 21 -15 -1 -19 -18 -7 -16 23 -11 -10 27 -27 28 -4 -29
right_child=1 2 4 12 9 20 -8 10 24 22 11 -13 -14 16 15 -17 19 18 -20 -21 -22 -23 -24 -25 -26 26 -28 29 -30 -31
leaf_value=-0.052098665188318606 -0.033450845975687461 0.022675480203973433 -0.025262330921337763 0.0016221583583289187 0.10222184313110477 -0.05975880074137379 0.50435476629779896 0.11119568606915753 -0.0088280242041716937 0.23280204957859085 0.16167108440894865 0.3697777960419783 0.042842334468665748 0.007822417556421787 -0.017469386834344704 -0.032777032292085534 0.38202804275627794 -0.047156059757670662 -0.015891592768246324 0.12569409837848994 0.0043269518132846296 0.026086977486156931 0.21130868118208845 0.47095029926489274 -0.22520516610181912 0.084220828346129678 0.26672680805935417 0.032901922861735031 0.097644339347284087 0.18123558292626052
leaf_weight=5774 5331 775 513 3571 239 840 26 1231 491 66 276 102 3875 164 1398 1913 29 3109 4979 603 918 2930 353 63 41 335 86 195 288 186
leaf_count=5774 5331 775 513 3571 239 840 26 1231 491 66 276 102 3875 164 1398 1913 29 3109 4979 603 918 2930 353 63 41 335 86 195 288 186
internal_value=0 0.0190609 0.0676173 -0.000904906 0.121958 0.0118973 0.104624 0.101389 0.0438235 0.199803 0.136246 0.217827 0.0230737 0.0673003 -0.0163339 -0.00171284 0.110748 -0.0379851 -0.0279095 0.137456 -0.0262942 0.0120177 0.248188 0.349107 -0.0255037 0.0664006 0.121502 0.0467747 0.0189288 0.105317
internal_weight=0 26838 7820 19018 3959 3861 3238 3212 2103 721 1609 378 7446 1571 11572 6241 796 13862 8088 632 1758 4328 482 129 532 1603 421 1182 801 381
internal_count=40700 26838 7820 19018 3959 3861 3238 3212 2103 721 1609 378 7446 1571 11572 6241 796 13862 8088 632 1758 4328 482 129 532 1603 421 1182 801 381
is_linear=0
shrinkage=0.05


Tree=28
num_leaves=31
num_cat=0
split_feature=22 12 15 3 3 13 1 3 15 15 21 21 1 21 3 3 3 3 19 20 1 18 16 15 3 3 4 21 15 1
split_gain=10738.4 9392.71 8547.71 4376.13 4708.89 5973.28 3991.27 2228.95 2250.33 1797.32 1669.27 1549.47 1402.96 1400.82 1232.32 1262.01 1107.03 1299.35 1047.25 1153.98 1230.14 1066.74 1416.3 1002.48 969.243 959.83 1665.07 1421.15 1226.43 886.24
threshold=1.0000000180025095e-35 1.0000000180025095e-35 -0.10978154806805925 5.5000000000000009 9.5000000000000018 1.0000000180025095e-35 4.5000000000000009 18.500000000000004 1.0270217974366485 -1.2367536402434129 1.0000000180025095e-35 1.0000000180025095e-35 1.5000000000000002 1.0000000180025095e-35 12.500000000000002 22.500000000000004 20.500000000000004 11.500000000000002 1.0000000180025095e-35 1.0000000180025095e-35 5.5000000000000009 1.0000000180025095e-35 1.0000000180025095e-35 1.9387411851377379 8.5000000000000018 16.500000000000004 -0.41087457730060545 1.0000000180025095e-35 0.72173550984093715 3.5000000000000004
decision_type=2 2 2 2 2 2 2 2 2 2 2 2 2 2 2 2 2 2 2 2 2 2 2 2 2 2 2 2 2 2
left_child=24 3 9 -2 5 -5 12 8 18 -3 -11 -8 -6 -14 -15 -16 17 -13 19 21 25 22 -4 -9 -1 28 -27 -28 -21 -26
right_child=1 2 7 4 6 -7 11 23 -10 10 -12 16 13 14 15 -17 -18 -19 -20 20 -22 -23 -24 -25 29 26 27 -29 -30 -31
leaf_value=-0.062028735056956164 -0.047945351118656249 -0.044405514239231864 0.0068449321511393248 0.16126756987163066 -0.047375062943198071 -0.10108918959288289 0.013205686881812385 0.021961355981527361 0.23231900790554844 -0.0070226557990721687 0.070090336439392803 0.018208947433352784 -0.026291680588745966 -0.028576574497159446 0.0468358274143576 -0.057384764273738703 0.014669501032687035 0.12483945976931095 0.18223834346312187 0.24815332236317184 0.44364831890608819 0.13458877274166209 0.12406119106261676 0.24959670713601204 -0.045907140446274697 -0.04566009918114905 0.036605879999697215 0.4362312966449694 -0.057474891174780697 -0.017188831211555414
leaf_weight=2858 3918 1053 672 988 2415 278 1972 692 492 1380 1428 384 3524 1063 2480 329 551 1116 491 241 37 605 418 52 4659 132 45 44 38 6345
leaf_count=2858 3918 1053 672 988 2415 278 1972 692 492 1380 1428 384 3524 1063 2480 329 551 1116 491 241 37 605 418 52 4659 132 45 44 38 6345
internal_value=0 0.0181079 0.0642364 -0.000859661 0.0113577 0.103657 0.00291104 0.11586 0.133908 0.0113024 0.0321929 0.0448515 -0.0142866 -0.00348236 0.017277 0.0346291 0.0752784 0.097542 0.116127 0.101583 0.165457 0.0813472 0.0517958 0.0378714 -0.0360859 0.14487 0.0670331 0.234174 0.206527 -0.0293479
internal_weight=0 26838 7820 19018 15100 1266 13834 3959 3215 3861 2808 4023 9811 7396 3872 2809 2051 1500 2723 2232 537 1695 1090 744 13862 500 221 89 279 11004
internal_count=40700 26838 7820 19018 15100 1266 13834 3959 3215 3861 2808 4023 9811 7396 3872 2809 2051 1500 2723 2232 537 1695 1090 744 13862 500 221 89 279 11004
is_linear=0
shrinkage=0.05


Tree=29
num_leaves=31
num_cat=0
split_feature=22 15 12 3 3 15 15 3 3 13 13 3 3 1 21 21 2 19 1 13 3 3 3 21 15 8 6 3 4 2
split_gain=9691.43 8553.67 9164.18 3168.79 2297.37 2069.26 2060.53 1812.93 2473.89 6402.48 2262.66 1994.91 1680.19 1583.56 1555.8 1553.11 1469.37 1086.19 1019.3 1127.6 1017.01 1268.71 1021.38 1149.23 1008.96 950.932 908.651 889.806 874.954 833.15
threshold=1.0000000180025095e-35 -0.14651938945669549 1.0000000180025095e-35 4.5000000000000009 18.500000000000004 1.0270217974366485 -1.2367536402434129 5.5000000000000009 9.5000000000000018 1.0000000180025095e-35 1.0000000180025095e-35 19.500000000000004 22.500000000000004 4.5000000000000009 1.0000000180025095e-35 1.0000000180025095e-35 15.500000000000002 1.0000000180025095e-35 3.5000000000000004 1.0000000180025095e-35 9.5000000000000018 5.5000000000000009 15.500000000000002 1.0000000180025095e-35 2.5529358010294492 -1.193958350665618 -0.1613192177656981 12.500000000000002 0.12238433806983016 3.5000000000000004
decision_type=2 2 2 2 2 2 2 2 2 2 2 2 2 2 2 2 2 2 2 2 2 2 2 2 2 2 2 2 2 2
left_child=27 6 3 -3 5 17 -2 -8 9 15 -10 14 13 20 -12 16 -9 25 -6 -20 21 -5 -22 -24 -14 -4 -17 -1 -29 -19
right_child=1 2 4 12 18 -7 7 8 10 -11 11 -13 24 -15 -16 26 -18 29 19 -21 22 -23 23 -25 -26 -27 -28 28 -30 -31
leaf_value=-0.049032394202564729 -0.040457386801211262 -0.053704967227650752 0.19207361701512382 -0.0012166777448285194 -0.047018510219725695 0.22070305841484883 -0.043738629035794237 0.12678047990660909 -0.026453820099051836 -0.07165921372925714 0.020254838830204885 -0.04266718492577392 -0.069132393039762971 0.065003178485169261 0.1338356687059272 0.19673959109642214 -0.0083744519286147959 -0.10595890927314758 0.11554615766604742 -0.061674896316697536 -0.010714871924695772 0.17694921368372821 -0.0035327185915086214 0.085448263016901921 0.22891097734371824 0.08455103826534692 0.080841206473355395 -0.03687922899067133 -0.003058025295169132 0.19000043930596763
leaf_weight=5884 4038 1319 228 189 275 492 1764 421 3909 685 601 487 531 2921 605 546 385 25 375 118 2401 212 703 750 30 2096 245 4799 3179 487
leaf_count=5884 4038 1319 228 189 275 492 1764 421 3909 685 601 487 531 2921 605 546 385 25 375 118 2401 212 703 750 30 2096 245 4799 3179 487
internal_value=0 0.0172025 0.0459973 0.0179279 0.108057 0.126045 -0.0104687 0.00208247 0.0123347 0.0562181 -0.00554144 0.0427435 0.0301398 0.0366547 0.0772336 0.111068 0.0622214 0.109624 0.0301069 0.0731281 0.0171938 0.0929758 0.00930884 0.0423969 -0.0531942 0.0950997 0.160842 -0.0342816 -0.0234025 0.175549
internal_weight=0 26838 13152 9056 4096 3328 13686 9648 7884 2282 5602 1693 7737 7176 1206 1597 806 2836 768 493 4255 401 3854 1453 561 2324 791 13862 7978 512
internal_count=40700 26838 13152 9056 4096 3328 13686 9648 7884 2282 5602 1693 7737 7176 1206 1597 806 2836 768 493 4255 401 3854 1453 561 2324 791 13862 7978 512
is_linear=0
shrinkage=0.05


Tree=30
num_leaves=31
num_cat=0
split_feature=22 12 15 3 4 3 15 3 3 3 17 15 15 15 17 21 21 1 1 6 20 21 3 18 3 3 17 3 3 6
split_gain=8746.75 7670.21 6972.89 3667.53 3176.28 2017.51 1911.68 1851.79 1813.43 1782.64 2388.33 1611.01 1589.87 1446.68 1119.11 1218.67 1007.18 1049.55 966.393 920.63 1131.54 906.396 1154.99 896.126 827.881 819.907 775.571 773.792 1031.69 798.956
threshold=1.0000000180025095e-35 1.0000000180025095e-35 -0.0047423677597042578 5.5000000000000009 -0.46372005540037831 9.5000000000000018 -0.83936403198323306 18.500000000000004 21.500000000000004 8.5000000000000018 1.0000000180025095e-35 1.0270217974366485 0.74657236035719843 2.785781274619398 1.0000000180025095e-35 1.0000000180025095e-35 1.0000000180025095e-35 5.5000000000000009 1.5000000000000002 -0.1613192177656981 1.0000000180025095e-35 1.0000000180025095e-35 16.500000000000004 1.0000000180025095e-35 17.500000000000004 9.5000000000000018 1.0000000180025095e-35 12.500000000000002 21.500000000000004 0.85018630026745623
decision_type=2 2 2 2 2 2 2 2 2 2 2 2 2 2 2 2 2 2 2 2 2 2 2 2 2 2 2 2 2 2
left_child=26 3 6 -2 5 14 23 11 12 10 19 -4 16 -10 15 -5 -6 -18 24 -8 -21 -13 -23 -3 -11 -19 -1 -7 29 -29
right_child=1 2 7 4 8 27 9 -9 13 18 -12 21 -14 -15 -16 -17 17 25 -20 20 -22 22 -24 -25 -26 -27 -28 28 -30 -31
leaf_value=-0.040800943872089497 -0.04452498328561981 -0.027060019406512332 0.10951531527840044 0.028867901625051123 0.007046833363665763 -0.048409833205717054 0.16389817081165056 0.035234019358056722 -0.03018522144055337 0.02062096400355751 -0.10617503048927804 0.14230104985963268 0.090068633844276186 0.38839367855162849 -0.058008047985995931 0.18641233107341187 0.037218510289763716 -0.06880299547314643 0.033585711638621583 -0.026030703248106874 0.22706004430646778 0.1140227145962901 0.34660443519723827 0.25301954931226273 -0.13191589978077195 0.1461645852482899 -0.014630509540632042 0.0092412306296684905 -0.052867399641150559 -0.064982131525276252
leaf_weight=9849 3914 1879 2340 246 2450 1886 575 679 1212 165 123 262 1409 21 129 245 2102 50 1044 160 61 77 174 29 193 393 3973 3460 1129 405
leaf_count=9849 3914 1879 2340 246 2450 1886 575 679 1212 165 123 262 1409 21 129 245 2102 50 1044 160 61 77 174 29 193 393 3973 3460 1129 405
internal_value=0 0.0156868 0.0575863 -0.00138227 0.00977322 -0.0133389 0.0142742 0.109446 0.0324707 0.0447539 0.0988767 0.127107 0.0431617 -0.0230561 0.0730476 0.10748 0.02993 0.0519591 0.00927687 0.130562 0.0438269 0.207352 0.275255 -0.022803 -0.0616126 0.121902 -0.0332785 -0.0211237 -0.0108191 0.00146362
internal_weight=0 26812 7761 19051 15137 7500 4229 3532 7637 2321 919 2853 6404 1233 620 491 4995 2545 1402 796 221 513 251 1908 358 443 13822 6880 4994 3865
internal_count=40634 26812 7761 19051 15137 7500 4229 3532 7637 2321 919 2853 6404 1233 620 491 4995 2545 1402 796 221 513 251 1908 358 443 13822 6880 4994 3865
is_linear=0
shrinkage=0.05


Tree=31
num_leaves=31
num_cat=0
split_feature=22 12 17 4 3 3 15 3 1 15 19 3 2 18 20 16 1 3 3 15 3 3 2 1 3 2 11 15 20 11
split_gain=7893.94 6922.36 6334.42 4238.56 4157.74 3351.47 2934 2006.88 1872.95 1775.32 1466.86 1275.43 1197.31 1163.42 1528.55 1863.89 1421.27 1185.18 1163.36 1085.05 1352.31 1065.47 948.738 948.27 1315.87 1031.54 902.154 895.725 1118.37 1204.08
threshold=1.0000000180025095e-35 1.0000000180025095e-35 1.0000000180025095e-35 -0.67510196779946996 8.5000000000000018 4.5000000000000009 0.76209539192986187 21.500000000000004 2.5000000000000004 0.047518505201595437 1.0000000180025095e-35 8.5000000000000018 26.500000000000004 1.0000000180025095e-35 1.0000000180025095e-35 1.0000000180025095e-35 5.5000000000000009 17.500000000000004 16.500000000000004 2.785781274619398 22.500000000000004 17.500000000000004 27.500000000000004 5.5000000000000009 9.5000000000000018 6.5000000000000009 -1.0773079085775492 -1.3169559700355065 1.0000000180025095e-35 -0.77467163004880824
decision_type=2 2 2 2 2 2 2 2 2 2 2 2 2 2 2 2 2 2 2 2 2 2 2 2 2 2 2 2 2 2
left_child=-1 5 3 4 27 -2 7 8 -7 12 13 -4 -5 14 15 17 26 18 -11 20 -8 -6 -14 25 -25 -10 -16 -3 29 -29
right_child=1 2 11 9 21 6 19 -9 23 10 -12 -13 22 -15 16 -17 -18 -19 -20 -21 -22 -23 -24 24 -26 -27 -28 28 -30 -31
leaf_value=-0.031614580613861423 -0.051469277027238358 -0.057434325208587038 -0.074639232161452171 0.09304284921948329 0.026658104879779806 -0.019019379820982816 0.06904006090240937 -0.050998011199352301 -0.025199521067440972 -0.014737348243943417 0.22909586370425777 0.0080457438294331742 -0.1865283565264042 0.19532360974615356 -0.16853210459584778 0.14694278187109766 0.38543308259862846 -0.12176733259704842 0.21530462465938427 0.32792364479722202 -0.049694980140809683 -0.053818703436354101 0.041011303660225096 -0.067093562483787547 0.094545679121356641 0.024589667712333774 0.15346878028783642 0.046019524449499652 0.27187181916114128 0.18521414127867872
leaf_weight=13822 2835 62 694 871 842 4624 2026 1770 1297 192 433 1422 73 444 23 321 66 157 77 37 272 804 123 150 784 5256 401 327 133 296
leaf_count=13822 2835 62 694 871 842 4624 2026 1770 1297 192 433 1422 73 444 23 321 66 157 77 37 272 804 123 150 784 5256 401 327 133 296
internal_value=0 0.0149024 0.054707 0.082363 0.0331354 -0.00131315 0.00745551 -0.0012674 0.00600063 0.120495 0.147032 -0.0190731 0.0679177 0.125894 0.100973 0.0559572 0.169599 -0.0126023 0.0511111 0.0593111 0.0549861 -0.0126513 -0.0437356 0.0214531 0.0685865 0.0147352 0.136002 0.125269 0.140252 0.112154
internal_weight=0 26812 7761 5645 2464 19051 16216 13881 12111 3181 2114 2116 1067 1681 1237 747 490 426 269 2335 2298 1646 196 7487 934 6553 424 818 756 623
internal_count=40634 26812 7761 5645 2464 19051 16216 13881 12111 3181 2114 2116 1067 1681 1237 747 490 426 269 2335 2298 1646 196 7487 934 6553 424 818 756 623
is_linear=0
shrinkage=0.05


Tree=32
num_leaves=31
num_cat=0
split_feature=22 12 15 3 3 13 4 21 11 15 3 13 21 3 4 3 18 13 11 2 3 3 3 4 19 3 5 4 6 20
split_gain=7124.29 6247.43 5760.35 3036.05 3020.62 4662.58 2565.11 1764.86 1744.3 1574.24 1485.83 1982.31 1356.34 1316.36 1614.79 1677.41 1224.55 1038.23 1035.68 940.054 934.897 1290.79 1518.63 900.054 896.167 871.818 1122.63 888.529 811.21 978.359
threshold=1.0000000180025095e-35 1.0000000180025095e-35 -0.0047423677597042578 5.5000000000000009 9.5000000000000018 1.0000000180025095e-35 -0.46372005540037831 1.0000000180025095e-35 -0.33447340673427534 -0.83936403198323306 8.5000000000000018 1.0000000180025095e-35 1.0000000180025095e-35 16.500000000000004 -0.83844253647149536 18.500000000000004 1.0000000180025095e-35 1.0000000180025095e-35 -0.9397459637917579 21.500000000000004 11.500000000000002 19.500000000000004 14.500000000000002 0.44426134104117448 1.0000000180025095e-35 7.5000000000000009 -0.10446813203468937 0.76613834401251879 -0.1613192177656981 1.0000000180025095e-35
decision_type=2 2 2 2 2 2 2 2 2 2 2 2 2 2 2 2 2 2 2 2 2 2 2 2 2 2 2 2 2 2
left_child=-1 3 9 -2 5 18 -6 -8 -4 -3 11 28 25 19 -15 17 -17 -16 -5 24 -9 22 -22 -24 -14 26 -10 -27 -11 -30
right_child=1 2 8 4 6 -7 7 20 12 10 -12 -13 13 14 15 16 -18 -19 -20 -21 21 -23 23 -25 -26 27 -28 -29 29 -31
leaf_value=-0.030033851318488403 -0.040500701199546005 -0.021041002406263276 0.047237301916118739 0.045561680410589493 -0.019433400398804312 -0.093852618673335858 -0.0018449623622522127 -0.0063631934852548229 0.36147161683728624 0.14983550634883022 0.0078749211277372982 -0.097134317412245569 0.10404770088453706 -0.017961834530035657 0.31581395385042332 0.0643434091864582 0.3947068183711081 0.10600537978112699 0.16740222675398808 -0.0047857288555924297 0.049840813284471042 0.022466728858775667 0.094394490936158731 0.2109849463000161 0.31699167145568818 0.043194334874254586 0.070273569289227608 0.14683576096012985 -0.02783198542892933 0.20750506197323748
leaf_weight=13822 3914 1908 1111 231 6880 283 3473 642 62 575 1402 123 260 75 374 187 33 70 712 157 977 1272 362 305 61 791 71 280 160 61
leaf_count=13822 3914 1908 1111 231 6880 283 3473 642 62 575 1402 123 260 75 374 187 33 70 712 157 977 1272 362 305 61 791 71 280 160 61
internal_value=0 0.0141573 0.0519716 -0.0012475 0.00890227 0.0841393 0.0022715 0.0235103 0.0991067 0.0126051 0.0402642 0.0896764 0.12291 0.160134 0.201956 0.226796 0.113898 0.282736 0.137556 0.095476 0.0482598 0.0602858 0.0895473 0.147708 0.144514 0.0852836 0.20602 0.0702901 0.118543 0.0371253
internal_weight=0 26812 7761 19051 15137 1226 13911 7031 3532 4229 2321 919 2421 1217 739 664 220 444 943 478 3558 2916 1644 667 321 1204 133 1071 796 221
internal_count=40634 26812 7761 19051 15137 1226 13911 7031 3532 4229 2321 919 2421 1217 739 664 220 444 943 478 3558 2916 1644 667 321 1204 133 1071 796 221
is_linear=0
shrinkage=0.05


Tree=33
num_leaves=31
num_cat=0
split_feature=22 15 12 3 6 3 3 15 11 15 3 15 3 3 13 1 19 5 5 20 18 16 3 15 3 13 1 3 3 18
split_gain=6429.67 5654.48 5986.18 2009.59 1854.48 1669.89 2361.11 1592.65 1573.38 1205.91 1585.24 1274.41 1078.34 1056.89 5995.18 2183.89 1005.91 876.455 850.124 797.849 1275.28 876.3 793.089 779.493 762.29 787.374 740.726 1625.22 693.655 684.635
threshold=1.0000000180025095e-35 0.010263229427203533 1.0000000180025095e-35 4.5000000000000009 -0.19459242559573606 5.5000000000000009 18.500000000000004 -1.2186434367419723 -0.33447340673427534 2.785781274619398 22.500000000000004 0.76209539192986187 18.500000000000004 8.5000000000000018 1.0000000180025095e-35 2.5000000000000004 1.0000000180025095e-35 1.1027643069347433 0.80367518917204617 1.0000000180025095e-35 1.0000000180025095e-35 1.0000000180025095e-35 12.500000000000002 1.1160205117865847 8.5000000000000018 1.0000000180025095e-35 5.5000000000000009 7.5000000000000009 11.500000000000002 1.0000000180025095e-35
decision_type=2 2 2 2 2 2 2 2 2 2 2 2 2 2 2 2 2 2 2 2 2 2 2 2 2 2 2 2 2 2
left_child=24 4 3 -3 5 -2 7 28 -4 10 11 -5 16 14 26 -15 19 18 -6 20 21 -10 -17 -18 -1 -26 -9 -28 -7 -14
right_child=1 2 8 9 17 6 -8 13 12 -11 -12 -13 29 15 -16 22 23 -19 -20 -21 -22 -23 -24 -25 25 -27 27 -29 -30 -31
leaf_value=-0.051699305358449965 -0.039262132594976198 -0.044911116234388405 0.044893865314109244 0.016311775517106209 -0.030511326906934918 -0.039158734577796603 -0.031964869610882962 0.15612616186931969 0.018314897884328638 0.31106120122445602 -0.059964685080317305 0.064378573004706133 0.024355914014905916 -0.027483916468024783 -0.085741484276927252 0.023001507782683946 0.16774831823438308 0.20338796205245535 -0.14540197460683521 0.17453220454785717 0.17238698210620004 0.13058310371501722 0.085134441078396031 0.33799160896618474 -0.031183973479117291 -0.0017748359735518982 -0.085275676997844135 0.26627053385972976 0.020286367141285584 0.19277373216521573
leaf_weight=2825 1767 1154 1094 4318 4489 977 2122 945 498 37 510 2026 402 1140 403 899 296 39 167 421 353 267 1198 87 7780 3217 96 50 986 71
leaf_count=2825 1767 1154 1094 4318 4489 977 2122 945 498 37 510 2026 402 1140 403 899 296 39 167 421 353 267 1198 87 7780 3217 96 50 986 71
internal_value=0 0.0134494 0.0398763 0.0161548 -0.00650128 0.00510147 0.0139933 0.0285621 0.0945738 0.0263812 0.0248444 0.0316622 0.117267 0.0442719 0.0790579 0.0282168 0.13391 -0.032655 -0.0346322 0.115866 0.0937738 0.0574987 0.0584976 0.20642 -0.0285322 -0.0225808 0.139932 0.0351169 -0.00929991 0.0496364
internal_weight=0 26812 11534 8045 15278 10583 8816 6694 3489 6891 6854 6344 2395 4731 1494 3237 1922 4695 4656 1539 1118 765 2097 383 13822 10997 1091 146 1963 473
internal_count=40634 26812 11534 8045 15278 10583 8816 6694 3489 6891 6854 6344 2395 4731 1494 3237 1922 4695 4656 1539 1118 765 2097 383 13822 10997 1091 146 1963 473
is_linear=0
shrinkage=0.05


Tree=34
num_leaves=31
num_cat=0
split_feature=12 15 3 4 21 21 15 3 5 15 3 3 13 4 3 3 3 15 13 3 3 3 2 15 15 18 15 18 3 15
split_gain=3876.67 4065.69 2241.55 1883 1472.9 1407.91 1221.9 1017.5 996.634 964.521 982.92 940.997 1161.76 933.762 916.577 910.213 1435.25 1066.51 1266.93 794.126 785.784 1305.05 977.947 729.086 653.416 627.328 625.686 671.864 611.183 600.142
